tree
version=v4
num_class=1
num_tree_per_iteration=1
label_index=0
max_feature_idx=30
objective=binary sigmoid:1
feature_names=jcd lane cls_val age weight f_count avg_st n_win n_2ren l_win l_2ren m_2ren b_2ren win_dev motor_dev st_dev win_rank motor_rank st_rank avg_st_diff_in n_win_diff_in avg_st_diff_out n_win_diff_out tenji tenji_dev tenji_rank tenji_diff_in tenji_diff_out course_in maezuke course_diff
feature_infos=[1:24] [1:6] [1:4] [16:77] [40:69] [0:3] [0:0.31] [0:8.4900000000000002] [0:0.75] [0:9.3000000000000007] [0:1] [0:1] [0:1] [-5.4200000000000008:4.0266666666666673] [-0.47760000000000002:0.75] [-0.14166666666666666:0.17833333333333334] [1:6] [1:6] [1:6] [-0.25:0.31] [-7.7400000000000002:7.7199999999999998] [-0.31:0.25] [-7.7199999999999998:7.7400000000000002] [6.4299999999999997:7.6299999999999999] [-0.37333333333333396:0.2833333333333341] [1:6] [-0.51999999999999957:0.5] [-0.5:0.51999999999999957] [1:6] [0:1] [-5:5]
tree_sizes=3359 3415 3466 3465 3458 3472 3478 3477 3462 3473 3482 3436 3464 3479 3447 3467 3471 3476 3469 3455 3480 3500 3469 3475 3492 3468 3510 3473 3453 3492 3482 3458 3469 3483 3460 3458 3457 3487 3456 3493 3476 3478 3459 3481 3504 3453 3445 3480 3460 3466 3487 3460 3461 3456 3483 3462 3477 3487 3447 3474 3483 3432 3457 3472 3451 3480 3430 3452 3456 3443 3417 3445 3455 3440 3461 3464 3470 3487 3456 3450 3456 3443 3444 3440 3453 3405 3431 3455

Tree=0
num_leaves=31
num_cat=0
split_feature=28 2 13 28 16 13 13 28 24 13 24 8 24 28 13 0 24 14 24 19 14 15 25 11 13 3 16 11 22 24
split_gain=9933.83 994.021 723.702 240.87 180.799 165.322 160.699 158.885 86.2524 77.3345 54.8806 49.783 43.9399 40.6341 40.1296 45.2337 42.9093 39.2898 32.0746 35.1256 30.2696 29.3534 32.9908 28.7353 28.1661 26.4889 25.6525 29.9978 24.7532 24.4869
threshold=1.5000000000000002 2.5000000000000004 0.55249999999999988 4.5000000000000009 2.5000000000000004 1.365 -0.1116666666666659 4.5000000000000009 0.02166666666666606 -0.47250000000000009 0.031666666666667627 0.18440000000000004 -0.0016666666666673711 5.5000000000000009 1.5941666666666665 10.500000000000002 0.036666666666665744 0.094925000000000051 0.048333333333332458 -0.019999999999999993 -0.018825000000000019 0.018333333333333337 1.5000000000000002 0.33095000000000008 0.80416666666666636 37.500000000000007 1.5000000000000002 0.36865000000000009 -2.4349999999999992 -0.024999999999999908
decision_type=2 2 2 2 2 2 2 2 2 2 2 2 2 2 2 2 2 2 2 2 2 2 2 2 2 2 2 2 2 2
left_child=1 6 7 5 14 18 11 9 -7 -2 -11 -1 23 21 15 20 -17 24 19 -4 -3 -5 -23 -6 29 -14 27 -10 -13 -8
right_child=2 4 3 13 12 8 17 -9 26 10 -12 28 25 -15 -16 16 -18 -19 -20 -21 -22 22 -24 -25 -26 -27 -28 -29 -30 -31
leaf_value=-1.5844221601467419 -1.6508497499279275 -1.4722571161307085 -1.591604075144982 -1.6333539611702195 -1.5272988612609477 -1.5822267778165626 -1.559644721909768 -1.6598865143614425 -1.5365118683460235 -1.6365758417955654 -1.6110671237295098 -1.613087390676762 -1.4224362775759136 -1.651555097227259 -1.3782121663164784 -1.4184065618438182 -1.3703128015367774 -1.4259564621496859 -1.5805381111016221 -1.6187579568057895 -1.4220119562650295 -1.5350518593028237 -1.6131720564642138 -1.4629660373366036 -1.4563770121415673 -1.4679382730574841 -1.5775087533416683 -1.477801958087593 -1.5320242249109546 -1.4989127971920366
leaf_weight=81.326749920845032 846.632319688797 45.459567904472351 173.35804641246796 194.62811946868896 38.369543552398682 176.55550837516785 20.296932458877563 1583.0217117071152 61.58589780330658 1058.4989297389984 263.30404162406921 10.009446144104002 54.356853365898132 206.3058066368103 85.9144127368927 133.5983020067215 71.039263606071472 21.687133312225342 108.57468664646149 380.49797356128693 87.999714016914368 16.543390154838562 73.819665312767029 31.696579456329346 31.41853928565979 77.712227702140808 20.435952544212341 33.642860651016235 159.17799770832062 91.05815589427948
leaf_count=585 6090 327 1247 1400 276 1270 146 11387 443 7614 1894 72 391 1484 618 961 511 156 781 2737 633 119 531 228 226 559 147 242 1145 655
internal_value=-1.60802 -1.46705 -1.63626 -1.60621 -1.42728 -1.59157 -1.52706 -1.64784 -1.56024 -1.63905 -1.63149 -1.55227 -1.46619 -1.63465 -1.40873 -1.41648 -1.40171 -1.48866 -1.60539 -1.61026 -1.43913 -1.62242 -1.59887 -1.4982 -1.49819 -1.44921 -1.52668 -1.51577 -1.53682 -1.50998
internal_weight=6238.53 1041.12 5197.4 1445.95 626.146 954.651 414.975 3751.46 292.22 2168.44 1321.8 250.514 202.135 491.297 424.011 338.097 204.638 164.461 662.431 553.856 133.459 284.991 90.3631 70.0661 142.774 132.069 115.665 95.2288 169.187 111.355
internal_count=44875 7489 37386 10401 4504 6867 2985 26985 2102 15598 9508 1802 1454 3534 3050 2432 1472 1183 4765 3984 960 2050 650 504 1027 950 832 685 1217 801
is_linear=0
shrinkage=1


Tree=1
num_leaves=31
num_cat=0
split_feature=28 7 13 28 28 13 8 16 13 24 24 13 28 15 14 14 24 0 24 6 27 15 25 22 6 0 27 9 20 9
split_gain=8303.99 685.185 683.171 218.627 156.09 142.369 133.517 99.5166 74.6503 69.9419 51.4462 39.9355 38.8634 38.1034 35.3036 30.8235 30.0875 38.8567 29.9117 28.1722 28.0445 27.0316 28.2397 26.8905 24.8324 24.6193 30.9278 25.5506 23.272 23.0313
threshold=1.5000000000000002 5.4350000000000014 0.55249999999999988 4.5000000000000009 4.5000000000000009 1.365 0.25115000000000004 2.5000000000000004 -0.47250000000000009 0.02166666666666606 0.031666666666667627 -0.031833333333334039 5.5000000000000009 0.0033333333333333136 -0.028549999999999989 0.065483333333333379 0.028333333333333769 7.5000000000000009 -0.008333333333333302 0.13500000000000004 -0.1350000000000002 0.018333333333333337 1.5000000000000002 -2.3649999999999989 0.17500000000000002 3.5000000000000004 0.06000000000000006 6.7350000000000012 0.9149999999999997 6.9450000000000012
decision_type=2 2 2 2 2 2 2 2 2 2 2 2 2 2 2 2 2 2 2 2 2 2 2 2 2 2 2 2 2 2
left_child=1 6 4 5 8 15 13 16 -2 -7 28 -8 21 23 -9 -4 24 19 -15 -18 -21 -5 -23 -1 -3 27 -27 -16 -10 -11
right_child=2 7 3 12 -6 9 11 14 10 29 -12 -13 -14 18 25 -17 17 -19 -20 20 -22 22 -24 -25 -26 26 -28 -29 -30 -31
leaf_value=-0.011715422245682224 -0.041906672112272905 0.15959778982554174 -0.0024041375127130463 -0.024488680903082562 -0.05106941892014108 0.024078584683702033 0.078773654073626118 0.093871557592506275 -0.030545012778758748 0.058765984000940241 -0.0028995577284400245 0.11925477044470167 -0.042617733606406624 0.025730276388166606 0.058430217796161102 0.026203383144330711 0.2030246465696724 0.19362999359666558 0.10433264702560399 0.033001821621332132 0.14282032716858326 0.065996039343843668 -0.0049104875562849849 0.04251294898273144 0.10764831526288406 0.15819258860041557 0.074575858459958705 0.18084995163878706 -0.0082127878458623169 0.10597642451998249
leaf_weight=27.811434745788574 822.60685846209526 249.66129782795906 549.99885949492455 191.35367870330811 1528.6872743666172 179.599339812994 117.35780350863934 66.348031684756279 904.50429058074951 84.861161768436432 262.7698969244957 126.69866901636124 200.35548728704453 17.363375842571259 16.258253902196888 113.60842715203762 16.224855855107307 149.94050826132298 39.954304426908493 6.845349356532096 38.566653102636337 17.354501217603683 73.566488519310951 128.41774320602417 25.338338330388069 95.53844065964222 12.506282165646551 5.7766433656215659 133.92991757392883 37.139541402459145
leaf_count=197 6090 1592 3950 1400 11387 1270 796 440 6632 580 1894 835 1484 120 107 815 104 939 273 44 247 119 531 887 162 625 83 38 982 252
internal_value=-9.04263e-05 0.12187 -0.027365 0.00170005 -0.0388862 0.0154392 0.0745253 0.153591 -0.0301169 0.0439236 -0.0226636 0.0997889 -0.0257767 0.0456523 0.123552 0.00249342 0.165717 0.179892 0.0805215 0.146472 0.126266 -0.0138231 0.00862376 0.0328594 0.154811 0.138691 0.148514 0.0905236 -0.0276648 0.0731378
internal_weight=6240.94 1140.61 5100.34 1447.84 3652.5 965.207 457.603 683.005 2123.81 301.6 1301.2 244.056 482.63 213.547 196.428 663.607 486.577 211.577 57.3177 61.6369 45.412 282.275 90.921 156.229 275 130.08 108.045 22.0349 1038.43 122.001
internal_count=44875 7489 37386 10401 26985 6867 3108 4381 15598 2102 9508 1631 3534 1477 1293 4765 3088 1334 393 395 291 2050 650 1084 1754 853 708 145 7614 832
is_linear=0
shrinkage=0.05


Tree=2
num_leaves=31
num_cat=0
split_feature=28 13 2 28 28 13 16 16 24 13 24 28 14 15 20 24 24 27 9 15 25 7 0 16 3 15 6 23 13 28
split_gain=7066.68 644.667 516.724 198.581 153.382 125.107 103.834 79.2006 73.9693 72.6954 40.0122 37.1463 32.0844 29.0678 28.4728 31.7019 27.7556 27.372 25.5051 24.8853 24.3301 22.8387 24.3495 22.0306 22.0031 21.9799 20.9628 20.0753 19.7606 19.0542
threshold=1.5000000000000002 0.55249999999999988 2.5000000000000004 4.5000000000000009 4.5000000000000009 1.2233333333333334 4.5000000000000009 2.5000000000000004 0.02166666666666606 -0.15749999999999972 0.043333333333332565 5.5000000000000009 -0.00081666666666668764 0.011666666666666674 -1.5599999999999996 0.05333333333333324 -0.0049999999999985603 0.06000000000000006 6.7150000000000007 0.018333333333333337 1.5000000000000002 6.3950000000000005 3.5000000000000004 1.5000000000000002 52.500000000000007 0.013666666666666676 0.17500000000000002 6.8250000000000011 -1.4249999999999994 5.5000000000000009
decision_type=2 2 2 2 2 2 2 2 2 2 2 2 2 2 2 2 2 2 2 2 2 2 2 2 2 2 2 2 2 2
left_child=2 4 6 5 9 12 16 21 13 14 -11 19 -3 -7 -2 -16 -1 -9 -10 -5 27 -4 -23 -15 28 -25 -18 -21 -8 -6
right_child=1 3 7 11 29 8 24 17 18 10 -12 -13 -14 23 15 -17 26 -19 -20 20 -22 22 -24 25 -26 -27 -28 -29 -30 -31
leaf_value=0.06260480841794612 -0.04818843248038511 -0.01239802887628824 0.13201067498062924 -0.023663158000787457 -0.044353704303066351 -0.0013060553268107774 0.0053432495957801808 0.11483189636071196 0.046604578199984224 -0.022913562017018489 0.0068297772367927881 -0.041715831925034495 0.011072751686625091 0.04448826584360753 -0.035052772947531667 -0.00035509153139786081 0.10925540329413966 0.062820109628396167 0.087743524501164752 0.088580627650633098 -0.0046807046858300247 0.11304809509898228 0.15819575536821825 0.10892287414807994 0.0061632180863780668 -0.024982778957657929 0.073037887838142357 -0.037154269522563177 0.054589858268320968 -0.055727132335038822
leaf_weight=87.019611105322838 402.80536358058453 279.36631578207016 243.24431939423084 188.20931017398834 704.99556545913219 103.24078619480133 24.282762050628662 209.04647122323513 95.531982034444809 770.60573028028011 132.51559893786907 194.60014110803604 304.10563352704048 104.33038805425167 702.21744222939014 72.639672935009003 118.43634839355946 28.777747929096222 62.209936052560806 13.991813719272615 73.325433701276779 33.875702813267708 252.23816095292568 3.5450866818428066 43.160585537552834 22.608655735850334 60.292089402675629 4.1062931567430487 126.4098271727562 770.97143286466599
leaf_count=557 3061 2011 1409 1400 5439 725 169 1272 640 5741 957 1484 2173 729 5299 540 740 182 405 92 531 198 1443 25 292 159 385 27 842 5948
internal_value=-0.000156886 -0.026513 0.10739 0.00159711 -0.0379662 0.0145059 0.0654648 0.132506 0.0363727 -0.0292213 -0.0185493 -0.0249411 -0.000165056 0.0185173 -0.0374055 -0.0318 0.0857627 0.108538 0.0628289 -0.0132674 0.00813382 0.143274 0.15285 0.0342018 0.0376391 -0.00683214 0.0970378 0.0600525 0.0466542 -0.0502946
internal_weight=6232.71 5005.92 1226.78 1449.17 3556.75 974.939 459.601 767.182 391.467 2080.78 903.121 474.233 583.472 233.725 1177.66 774.857 265.748 237.824 157.742 279.633 91.4235 529.358 286.114 130.484 193.853 26.1537 178.728 18.0981 150.693 1475.97
internal_count=44875 37386 7489 10401 26985 6867 2985 4504 2683 15598 6698 3534 4184 1638 8900 5839 1682 1454 1045 2050 650 3050 1641 913 1303 184 1125 119 1011 11387
is_linear=0
shrinkage=0.05


Tree=3
num_leaves=31
num_cat=0
split_feature=28 13 2 28 28 13 13 13 24 16 24 28 14 6 15 0 9 15 27 26 13 20 28 25 17 24 10 25 28 16
split_gain=6092.13 607.924 397.07 180.433 150.739 109.123 86.8352 70.0471 61.9597 59.6986 45.7958 35.4735 28.9883 27.1054 25.32 22.9117 27.4337 22.8882 22.5571 22.5315 24.5985 22.1858 21.445 21.0438 20.9546 20.8881 23.2755 19.8597 19.1634 18.9839
threshold=1.5000000000000002 0.55249999999999988 2.5000000000000004 4.5000000000000009 4.5000000000000009 1.2233333333333334 -0.65166666666666584 -0.47250000000000009 0.02166666666666606 2.5000000000000004 0.031666666666667627 5.5000000000000009 -0.00081666666666668764 0.17500000000000002 0.011666666666666674 11.500000000000002 7.0050000000000008 0.018333333333333337 -1.0000000180025095e-35 -0.14999999999999988 2.1825000000000001 0.9149999999999997 2.5000000000000004 1.5000000000000002 1.5000000000000002 0.056666666666666206 0.35605000000000003 2.5000000000000004 5.5000000000000009 1.5000000000000002
decision_type=2 2 2 2 2 2 2 2 2 2 2 2 2 2 2 2 2 2 2 2 2 2 2 2 2 2 2 2 2 2
left_child=2 4 6 5 7 12 24 25 14 27 21 17 -3 18 -7 16 -11 -5 -8 -10 22 -9 -21 -19 -1 -2 -27 -4 -6 -16
right_child=1 3 9 11 28 8 13 10 19 15 -12 -13 -14 -15 29 -17 -18 23 -20 20 -22 -23 -24 -25 -26 26 -28 -29 -30 -31
leaf_value=0.060698683105751709 -0.042556701350191135 -0.011878692187610007 0.13377918157424887 -0.022855952641788066 -0.043499041413053226 -0.0012418456852597397 0.098975535403291681 -0.028821838175009176 0.12825702785656454 0.070436056707167891 -0.0024135974599529177 -0.040826512862736045 0.010440289828609776 0.054328398187689357 0.04103244744949662 0.11025505464241965 0.14387678412218061 0.054874698040481076 0.066468198961967387 0.071643141930238435 0.10205730302756727 -0.006749778535957947 0.029495938607133756 -0.0044609993637454099 0.016993697816888278 -0.025031663425518436 0.061422943842379313 0.11483411450498703 -0.055105656730154023 -0.0065543435357113449
leaf_weight=36.431685522198677 715.77448202669621 277.06138452887535 335.34249901771545 185.19167602062225 683.45526959002018 103.15235175192356 118.95904722809792 869.47383101284504 10.488158255815504 97.914114341139793 260.99439296126366 189.03950273990631 306.3423515111208 114.89955358207226 107.37888623774052 140.41170428693295 14.613863214850424 18.78248319029808 96.782515734434128 46.730840608477592 21.534854054450989 131.00245679914951 85.217072412371635 73.095939069986343 110.94433204829693 52.987733334302902 9.1258582770824415 235.46058951318264 741.43221294879913 26.040697038173676
leaf_count=241 5610 2011 1779 1400 5439 725 708 6632 66 566 1894 1484 2173 713 729 805 83 119 588 299 133 982 547 531 735 410 70 1271 5948 184
internal_value=-0.000207128 -0.0256831 0.0959679 0.00149852 -0.0370608 0.0136378 0.0597176 -0.0283427 0.0337335 0.117004 -0.0210659 -0.0241273 -0.000159108 0.0739451 0.0173615 0.0967835 0.0799737 -0.0127337 0.0843926 0.0573545 0.0525094 -0.0259317 0.0444228 0.00766885 0.0277977 -0.0401431 -0.0123296 0.125964 -0.0495385 0.0317445
internal_weight=6216.06 4914.3 1301.76 1450.06 3464.25 983.947 478.017 2039.36 400.543 823.743 1261.47 466.11 583.404 330.641 236.572 252.94 112.528 277.07 215.742 163.971 153.483 1000.48 131.948 91.8784 147.376 777.888 62.1136 570.803 1424.89 133.42
internal_count=44875 37386 7489 10401 26985 6867 2985 15598 2683 4504 9508 3534 4184 2009 1638 1454 649 2050 1296 1045 979 7614 846 650 976 6090 480 3050 11387 913
is_linear=0
shrinkage=0.05


Tree=4
num_leaves=31
num_cat=0
split_feature=28 13 7 28 28 13 20 7 24 13 24 28 20 28 24 20 14 16 24 0 8 1 15 24 15 23 25 28 9 17
split_gain=5302.88 572.968 322.143 163.993 148.123 96.1247 67.9454 62.4925 61.1803 60.34 42.6867 33.8573 29.1432 38.8134 28.7364 29.0819 27.8672 27.6606 24.7794 22.114 21.7468 21.1142 21.0549 21.0324 20.2248 19.5167 19.551 19.3004 18.8513 19.3116
threshold=1.5000000000000002 0.55249999999999988 5.2650000000000006 4.5000000000000009 4.5000000000000009 1.4100000000000008 -1.5399999999999996 6.0950000000000006 0.051666666666666312 -0.4841666666666668 0.020000000000000021 5.5000000000000009 1.1200000000000006 3.5000000000000004 -0.021666666666666053 0.14999999999999972 0.058141666666666626 2.5000000000000004 -0.0033333333333342981 3.5000000000000004 0.18440000000000004 2.5000000000000004 0.018333333333333337 0.038333333333332671 0.016666666666666653 6.8550000000000013 1.5000000000000002 5.5000000000000009 5.6050000000000013 4.5000000000000009
decision_type=2 2 2 2 2 2 2 2 2 2 2 2 2 2 2 2 2 2 2 2 2 2 2 2 2 2 2 2 2 2
left_child=2 4 9 5 6 12 -2 17 14 20 -7 22 -3 16 -8 -16 21 -4 -11 -9 -1 -14 -5 24 -21 26 -24 -6 -12 -30
right_child=1 3 7 11 27 10 8 19 -10 18 28 -13 13 -15 15 -17 -18 -19 -20 23 -22 -23 25 -25 -26 -27 -28 -29 29 -31
leaf_value=0.010292294680189674 -0.045123159529019102 -0.0062847252259778212 0.10054968273608969 -0.022066987272305133 -0.042655713870130382 0.01990904175770955 -0.035170203492793838 0.087143152013136188 0.0053308065407937904 0.046043022316802969 0.022026538327422331 -0.039948431044970173 0.038784292923892502 -0.0091527379718358715 -0.027034885372996871 -0.007562455548537881 0.066927501508547163 0.072584382216447058 0.079294477415119829 0.10134467112181039 0.044418190397015583 0.001417019413949266 0.069691811073042634 0.13168090159359366 0.1278159479277062 -0.028536600435270322 0.0063219755144608902 -0.054509328645658467 0.080315762472156826 0.029266305739317506
leaf_weight=76.823635280132294 428.73723962903023 394.63664428889751 183.97154262661934 182.29727149009705 662.65100582689047 167.5057318508625 540.58275327086449 68.03484795987606 173.57510937005281 84.562556147575378 28.367089062929153 183.67238911986351 70.164498835802078 110.50822651386261 566.76944350451231 289.77987852692604 37.203386396169662 170.25002285838127 166.04395698010921 218.74850811064243 118.99349945783615 81.964435115456581 16.179464846849442 172.0209503620863 107.67388524115086 26.972755998373032 49.133971184492111 712.79252028465271 77.508841618895531 24.344409197568893
leaf_count=512 3445 2821 950 1400 5439 1136 4234 359 1271 499 177 1484 498 783 4430 2218 256 948 953 1127 739 584 98 856 546 194 358 5948 464 148
internal_value=-0.000245698 -0.0248739 0.0866812 0.00140741 -0.0361691 0.0128331 -0.0274812 0.103582 -0.0226657 0.0518253 0.036602 -0.0233313 0.00264331 0.014394 -0.0261438 -0.0204472 0.0281376 0.0871087 0.0680744 0.113883 0.0310298 0.0186515 -0.0122158 0.117533 0.110077 0.00724365 0.02202 -0.0487986 0.0580745 0.0681142
internal_weight=6192.47 4825.35 1367.12 1450.46 3374.89 992.203 1999.44 920.7 1570.71 446.424 297.726 458.256 694.477 299.841 1397.13 856.549 189.332 354.222 250.607 566.478 195.817 152.129 274.583 498.443 326.422 92.2862 65.3134 1375.44 130.22 101.853
internal_count=44875 37386 7489 10401 26985 6867 15598 4786 12153 2703 1925 3534 4942 2121 10882 6648 1338 1898 1452 2888 1251 1082 2050 2529 1673 650 456 11387 789 612
is_linear=0
shrinkage=0.05


Tree=5
num_leaves=31
num_cat=0
split_feature=28 13 8 28 28 16 13 13 24 24 24 28 15 26 6 14 22 14 15 13 0 28 15 22 23 2 9 14 23 9
split_gain=4650.71 539.683 265.606 149.109 145.53 85.5425 85.484 66.9521 45.8925 33.1982 33.0917 32.2799 30.7709 27.5499 26.5094 25.6152 24.6753 23.1758 21.7515 20.2424 21.5269 19.4606 19.348 18.4155 18.9628 17.8695 17.7716 17.7133 17.621 16.8343
threshold=1.5000000000000002 0.55249999999999988 0.27165000000000006 4.5000000000000009 4.5000000000000009 2.5000000000000004 1.2233333333333334 -0.15749999999999972 0.02166666666666606 -0.0049999999999985603 0.041666666666666526 5.5000000000000009 0.0033333333333333136 -0.039999999999999584 0.16500000000000004 -0.00081666666666668764 -2.3649999999999989 -0.1083333333333333 0.011666666666666674 1.5941666666666665 10.500000000000002 5.5000000000000009 0.018333333333333337 -1.1599999999999997 6.8750000000000009 3.5000000000000004 7.0050000000000008 -0.018825000000000019 6.8550000000000013 5.6050000000000013
decision_type=2 2 2 2 2 2 2 2 2 2 2 2 2 2 2 2 2 2 2 2 2 2 2 2 2 2 2 2 2 2
left_child=2 4 12 6 7 19 15 13 18 17 -9 22 16 -2 23 -3 -1 -7 25 20 27 -6 -5 24 -11 -8 -10 -4 -24 -17
right_child=1 3 5 11 21 9 8 10 26 14 -12 -13 -14 -15 -16 29 -18 -19 -20 -21 -22 -23 28 -25 -26 -27 -28 -29 -30 -31
leaf_value=-0.015539226731977794 -0.02032942921399793 -0.01136112205994419 0.064003727728178819 -0.021296193903442468 -0.04182224082617942 -0.0026001690291789022 -0.021163362711151702 -0.020526223118916317 0.039187045688339577 0.073575123661801009 0.0060754196642674053 -0.039080419053487768 0.061682788158581248 -0.039182366920359507 0.060250271586598951 -0.0054724986980005533 0.033085466659974083 0.059977765976737353 0.028356692588593718 0.1181027779549855 0.10426776785778605 -0.053935501971227678 0.020627619588736684 0.098033150230031063 -0.035455447676492939 0.020382572135204564 0.075034785175831412 0.094395045677428874 -0.02764638322549863 0.018636071353499487
leaf_weight=30.661764249205589 251.57142376899719 274.77709673345089 72.482446506619453 179.52252924442291 642.57734399288893 16.820524454116821 55.917452707886696 726.72410023957491 126.56665660440922 21.101178720593456 139.31950134038925 178.49693167209625 84.449624001979828 843.48014803975821 95.31028850376606 115.6798121035099 175.01823852956295 122.90241584181786 137.6211454719305 135.56681627035141 346.94813078641891 685.06046470999718 66.17887356877327 176.21484535932541 4.9172095209360114 48.184393808245659 47.567020565271378 141.62546120584011 26.462404891848564 193.57596302032471
leaf_count=206 2002 2011 363 1400 5439 95 390 5692 773 115 1006 1484 491 6898 519 814 1067 679 913 642 1674 5948 456 917 27 335 272 694 194 1359
internal_value=-0.000275721 -0.0240838 0.0789601 0.00132188 -0.0352894 0.0898831 0.0120842 -0.0266353 0.0294095 0.072549 -0.0162468 -0.0225566 0.0362706 -0.0348512 0.0819898 -0.000252277 0.0258367 0.0524443 0.0153117 0.100764 0.0965739 -0.0480727 -0.0117195 0.0922355 0.0529695 -0.00193349 0.0489794 0.0841066 0.00683845 0.00961805
internal_weight=6163.3 4739.28 1424.02 1450.55 3288.73 1133.89 999.89 1961.1 415.857 437.266 866.044 450.661 290.13 1095.05 297.544 584.033 205.68 139.723 241.723 696.623 561.056 1327.64 272.164 202.233 26.0184 104.102 174.134 214.108 92.6413 309.256
internal_count=44875 37386 7489 10401 26985 5725 6867 15598 2683 2352 6698 3534 1764 8900 1578 4184 1273 774 1638 3373 2731 11387 2050 1059 142 725 1045 1057 650 2173
is_linear=0
shrinkage=0.05


Tree=6
num_leaves=31
num_cat=0
split_feature=28 13 7 28 28 13 8 20 25 24 28 24 14 15 0 20 1 24 15 0 24 27 15 20 13 9 24 22 14 8
split_gain=4102.97 511.113 226.739 155.114 121.837 91.5925 78.3779 56.3448 46.6469 39.2813 36.702 33.7405 25.1423 24.6649 23.0036 22.3697 27.9763 21.955 22.586 21.9459 21.8799 21.6598 19.1173 18.9838 18.9024 17.9713 17.9559 17.0457 16.7327 16.7121
threshold=1.5000000000000002 0.40833333333333349 5.8250000000000011 4.5000000000000009 4.5000000000000009 1.2233333333333334 0.25115000000000004 -1.5599999999999996 1.5000000000000002 0.02166666666666606 5.5000000000000009 0.048333333333332458 0.094925000000000051 0.010000000000000024 16.500000000000004 1.1200000000000006 3.5000000000000004 -0.0099999999999984528 0.0033333333333333136 3.5000000000000004 -0.0033333333333334099 -0.044999999999999922 0.011666666666666674 0.9149999999999997 1.066666666666668 7.4450000000000012 0.036666666666666632 -2.1849999999999992 0.092825000000000032 0.52020000000000011
decision_type=2 2 2 2 2 2 2 2 2 2 2 2 2 2 2 2 2 2 2 2 2 2 2 2 2 2 2 2 2 2
left_child=2 4 6 5 7 11 17 -2 -9 22 24 15 14 19 20 -3 -17 -1 21 -4 -8 -19 29 -10 -5 -26 -21 -23 -13 -7
right_child=1 3 13 10 -6 9 12 8 23 -11 -12 28 -14 -15 -16 16 -18 18 -20 26 -22 27 -24 -25 25 -27 -28 -29 -30 -31
leaf_value=0.0073909998927455187 -0.044119760638144906 -0.013552550343548703 0.052716897695722256 -0.024562830758715643 -0.048013322851559431 -0.012247432704018339 0.031644453663265106 -0.0016470226124822855 -0.028735842147120855 0.045236930300871017 -0.040215109882884285 0.014976094744986432 0.094391157612412901 0.10139224321278067 0.07641112869330513 0.020632065674722085 -0.015626334872978952 -0.00086719906529546936 0.067755508355567109 0.079741792524662958 0.061458700640655263 -0.0019390527455739781 0.026453188204780195 -0.0067347664822965409 -0.0060281930488660269 0.050459696438322592 0.10356463405696198 0.056373873695425729 0.068546611600167326 0.036787628415738606
leaf_weight=77.74246571958065 392.48030878603458 396.35751184821129 51.442220449447632 166.45461292564869 1206.0462970435619 81.917768746614456 92.644277706742287 221.88336482644081 1047.5638634115458 178.96945290267467 208.48090896010399 102.31479433178902 60.142482087016106 346.12308964133263 138.66605535149574 134.2301627099514 88.128452867269516 42.609455853700638 49.822732180356979 238.25568819046021 183.27118842303753 15.960087016224859 140.08190840482712 108.17169860005379 128.06628333032131 15.819436132907866 118.40547788143158 58.347586214542389 16.9982680529356 22.054480865597725
leaf_count=484 3341 2944 255 1322 10718 573 501 1681 8538 1045 1800 724 308 1605 712 957 641 262 276 1138 948 106 913 840 966 115 545 349 116 152
internal_value=-0.000298632 -0.0233113 0.0724208 -0.00126119 -0.0357573 0.00889521 0.0523349 -0.0274068 -0.0226453 0.0274445 -0.0239898 -0.0017369 0.0641801 0.0915741 0.0597974 -0.0064316 0.0062616 0.0293344 0.0395655 0.0832471 0.051448 0.0275527 0.0143971 -0.0266766 -0.01309 0.000182337 0.0876506 0.0438492 0.0226082 -0.00184617
internal_weight=6129.45 4656.02 1473.43 1679.87 2976.15 1161.05 719.206 1770.1 1377.62 423.024 518.821 738.029 474.724 754.226 414.582 618.716 222.359 244.482 166.74 408.103 275.915 116.917 244.054 1155.74 310.34 143.886 356.661 74.3077 119.313 103.972
internal_count=44875 37386 7489 12268 25118 8065 3946 14400 11059 2683 4203 5382 2469 3543 2161 4542 1598 1477 993 1938 1449 717 1638 9378 2403 1081 1683 455 840 725
is_linear=0
shrinkage=0.05


Tree=7
num_leaves=31
num_cat=0
split_feature=28 13 2 28 28 20 20 28 16 25 28 16 11 24 24 13 24 20 24 11 0 20 13 28 13 3 9 3 26 24
split_gain=3636.83 482.226 196.41 141.778 119.958 82.1379 54.6337 51.5449 47.3688 43.712 35.132 33.6772 30.3881 28.7964 27.2123 26.3577 25.052 23.1533 22.0938 18.9993 18.4234 17.9385 17.5224 16.552 16.4178 15.7374 15.7276 15.1912 15.0006 14.6312
threshold=1.5000000000000002 0.40833333333333349 2.5000000000000004 4.5000000000000009 4.5000000000000009 1.1200000000000006 -1.5599999999999996 2.5000000000000004 4.5000000000000009 1.5000000000000002 5.5000000000000009 1.5000000000000002 0.39095000000000008 0.048333333333332458 0.0066666666666663774 1.4836666666666669 -0.010000000000000229 2.0950000000000011 -0.0016666666666673711 0.36200000000000004 8.5000000000000018 0.9149999999999997 1.066666666666668 5.5000000000000009 2.0350000000000001 52.500000000000007 7.4450000000000012 39.500000000000007 -0.20500000000000004 -0.020000000000000014
decision_type=2 2 2 2 2 2 2 2 2 2 2 2 2 2 2 2 2 2 2 2 2 2 2 2 2 2 2 2 2 2
left_child=2 4 8 5 6 13 -2 14 -1 28 22 -4 15 -3 -7 -9 -14 -16 19 -13 -20 29 -5 -6 -12 -10 -24 -22 -8 -11
right_child=1 3 11 10 23 7 9 12 25 21 24 18 16 -15 17 -17 -18 -19 20 -21 27 -23 26 -25 -26 -27 -28 -29 -30 -31
leaf_value=0.054731147789496726 -0.043327650513256558 -0.0099534479965974407 0.091389139332529748 -0.023752616286479636 -0.041156147997749679 0.022808512851242541 0.10290529860016268 -0.0068110901485753314 0.031575971859995687 -0.034805065420378908 -0.042430047202513088 0.047209232447200156 -0.0028320557873957181 0.019673345095190496 0.042069417596399497 0.02327756243862273 0.054177960899491742 0.091882479474159701 0.06364160989669225 0.081899762799739428 0.097580589509413562 -0.0064289172704244104 -0.0057509952676715031 -0.053089716951802514 0.027194235443307003 -0.0011070795339720885 0.046333098791993127 0.073733544280462415 -0.0031861151344873074 -0.022733446203524129
leaf_weight=321.33812281489372 379.99170212447643 482.40613584965467 396.05631873011589 163.59975329041481 562.39713400602341 83.420852288603783 3.3835261315107337 197.59610150754452 170.15747104585171 437.6812851652503 193.53757593035698 125.58616888523102 27.567478865385056 98.819108203053474 59.224426701664925 115.23078581690788 64.021519050002098 38.486555546522141 130.0425233989954 57.558134466409683 144.60609228909016 107.66524928808212 127.54083155095577 601.17192077636719 8.8544737100601179 47.007466271519661 16.352470755577087 124.08990366756916 218.24935223907232 588.53106237947941
leaf_count=1682 3341 3531 1765 1322 5086 564 25 1394 1011 3685 1722 615 189 666 377 712 402 230 616 274 661 840 966 5632 78 292 115 573 1656 4853
internal_value=-0.000316603 -0.0225563 0.0667896 -0.00121244 -0.0349003 0.00839916 -0.0265723 0.0216164 0.0425402 -0.0218753 -0.0232067 0.0801425 0.0116883 -0.00491634 0.0437829 0.00427216 0.0370184 0.0616899 0.0724876 0.0581117 0.0790906 -0.025845 -0.0125588 -0.0473218 -0.039384 0.0245014 0.000167999 0.0865675 -0.00156649 -0.027882
internal_weight=6092.17 4575.73 1516.44 1676.66 2899.07 1166.77 1735.5 585.548 538.503 1355.51 509.885 977.939 404.416 581.225 181.132 312.827 91.589 97.711 581.883 183.144 398.739 1133.88 307.493 1163.57 202.392 217.165 143.893 268.696 221.633 1026.21
internal_count=44875 37386 7489 12268 25118 8065 14400 3868 2985 11059 4203 4504 2697 4197 1171 2106 591 607 2739 889 1850 9378 2403 10718 1800 1303 1081 1234 1681 8538
is_linear=0
shrinkage=0.05


Tree=8
num_leaves=31
num_cat=0
split_feature=28 13 7 28 28 13 13 20 25 28 16 24 24 14 8 15 0 24 19 11 14 15 23 20 23 22 28 20 30 15
split_gain=3236.14 454.668 170.98 129.578 118.046 74.4672 60.6997 52.9289 40.9185 33.6056 31.6202 28.6968 27.9904 21.7436 20.9273 20.371 19.379 19.3117 19.0786 24.312 17.5652 17.2114 17.3143 16.9355 16.8355 17.4477 16.7375 16.4873 23.4214 16.0656
threshold=1.5000000000000002 0.40833333333333349 5.8250000000000011 4.5000000000000009 4.5000000000000009 1.2233333333333334 -0.1116666666666659 -1.5599999999999996 1.5000000000000002 5.5000000000000009 1.5000000000000002 0.046000000000000714 -0.010000000000000229 0.094925000000000051 0.18225000000000002 0.016333333333333328 3.5000000000000004 0.036666666666666632 1.0000000180025095e-35 0.4093 0.05688333333333332 0.016666666666666708 6.8550000000000013 0.9149999999999997 6.9050000000000011 -2.6649999999999987 5.5000000000000009 2.0950000000000011 -1.4999999999999998 0.032500000000000008
decision_type=2 2 2 2 2 2 2 2 2 2 2 2 2 2 2 2 2 2 2 2 2 2 2 2 2 2 2 2 2 2
left_child=2 4 6 5 7 12 14 -2 -9 21 11 20 -3 -8 -1 16 -4 -18 19 -14 27 -5 -23 -10 25 -16 -6 28 -7 -21
right_child=1 3 15 9 26 10 13 8 23 -11 -12 -13 18 -15 24 -17 17 -19 -20 29 -22 22 -24 -25 -26 -27 -28 -29 -30 -31
leaf_value=0.0091009154356911665 -0.0425432496982283 -0.014532450713495029 0.046367837209861262 -0.020372708301675521 -0.04035857030170973 0.11795265470660628 0.053734661147696233 -0.0014926962756118024 -0.027042942344666344 -0.038562724369671224 -0.00076104910424638829 0.058608972159833572 0.0058807760313064408 0.088474287914074981 -0.034481036664382535 0.089166868209629491 0.068647388799079945 0.090263557817731904 -0.0087554156654116814 0.035152180387883258 0.051046537593450896 0.018074372023813231 -0.027850176039033565 -0.0061356809314794467 0.010634904528019634 0.045497388796957 -0.052574077497230545 0.033217161282241135 0.00084676393683846764 0.15330643681100775
leaf_weight=90.585307016968727 367.95541529357433 270.69626048952341 63.459393948316574 204.38017790019512 545.27375012636185 4.4348489046096793 344.89194747805595 221.39463419467211 1005.7046766504645 196.53717842698097 97.278793096542358 76.127165645360947 251.96822436898947 51.808365732431412 7.0475108027458182 269.94698540866375 311.41572451591492 154.62911933660507 153.67070581018925 58.31698851287365 47.999900281429291 71.59931007027626 28.770616821944714 107.18285239487886 49.635599121451378 210.48279958963394 577.31948089599609 94.028241440653801 114.64384433627129 3.0262889862060538
leaf_count=567 3341 2013 298 1680 5086 28 1680 1681 8538 1800 635 416 1823 243 44 1175 1400 670 1125 401 292 501 222 840 274 1138 5632 582 730 20
internal_value=-0.000330437 -0.0218193 0.0618765 -0.00116651 -0.0340544 0.007932 0.0448035 -0.025754 -0.021124 -0.0224421 0.0243525 0.0315967 -0.00174011 0.0582716 0.0298691 0.0779886 0.0722897 0.0758194 0.00567524 0.0127531 0.0237212 -0.0120457 0.00491029 -0.0250294 0.0369107 0.0429063 -0.0466407 0.0175664 0.00520814 0.0409812
internal_weight=6052.21 4498.31 1553.9 1673.48 2824.83 1172.19 754.452 1702.24 1334.28 501.287 434.513 337.234 737.678 396.7 357.751 799.451 529.504 466.045 466.982 313.312 261.107 304.75 100.37 1112.89 267.166 217.53 1122.59 213.107 119.079 61.3433
internal_count=44875 37386 7489 12268 25118 8065 3946 14400 11059 4203 2683 2048 5382 1923 2023 3543 2368 2070 3369 2244 1632 2403 723 9378 1456 1182 10718 1340 758 421
is_linear=0
shrinkage=0.05


Tree=9
num_leaves=31
num_cat=0
split_feature=28 13 2 28 28 20 20 28 25 13 28 16 11 24 13 24 24 0 7 20 3 24 20 28 17 13 6 27 8 15
split_gain=2889.01 428.334 151.098 118.42 116.097 67.8427 51.2408 43.5248 38.2755 36.0312 32.0991 27.5657 24.7411 24.4606 21.8024 21.3441 19.7611 18.0312 19.3986 17.8945 17.0922 16.9318 18.1588 16.9317 16.8153 15.91 14.8615 14.437 16.5536 14.137
threshold=1.5000000000000002 0.40833333333333349 2.5000000000000004 4.5000000000000009 4.5000000000000009 1.1200000000000006 -1.5599999999999996 2.5000000000000004 1.5000000000000002 -0.73499999999999888 5.5000000000000009 1.5000000000000002 0.39095000000000008 0.048333333333332458 2.1025000000000005 0.0083333333333333055 -0.010000000000000229 10.500000000000002 5.9050000000000011 2.0950000000000011 51.500000000000007 -0.021666666666666053 0.13000000000000014 5.5000000000000009 2.5000000000000004 2.0350000000000001 0.17500000000000002 -1.0000000180025095e-35 0.22844999999999996 0.020833333333333332
decision_type=2 2 2 2 2 2 2 2 2 2 2 2 2 2 2 2 2 2 2 2 2 2 2 2 2 2 2 2 2 2
left_child=2 4 9 5 6 13 -2 15 -8 20 24 -4 14 -3 -9 -7 -14 18 -13 -17 -1 -10 -23 -6 -5 -12 27 -11 -29 -26
right_child=1 3 11 10 23 7 8 12 21 26 25 17 16 -15 -16 19 -18 -19 -20 -21 -22 22 -24 -25 29 -27 -28 28 -30 -31
leaf_value=0.025392173851052316 -0.041765337678911156 -0.0094199612592506948 0.078906498339903278 0.0034786679329776742 -0.039566446437851566 0.021434647618343954 -0.001419555586804392 -0.0012993910702304963 -0.031677196493013079 0.061377511786920781 -0.040914022416357748 0.034302662776347963 -0.0030427156568769943 0.017684571377500517 0.039808266469804822 0.037952298144648344 0.047174272218272216 0.069149757975808177 0.063216246019362363 0.081398110173906191 -0.013757564883656212 -0.024754771121958914 -0.0067102743935550414 -0.05207287088982681 -0.028972804062895985 0.027994848653327437 0.031135198532922233 -0.003521773507368417 0.046360404452670805 0.0023546565498012949
leaf_weight=107.10800623893738 356.36457922309637 478.3286310583353 415.03128449618816 115.13939968496561 528.80206128954887 88.588441222906113 221.16785238683224 278.99229187518358 449.21856592595577 150.54160465300083 182.12119551002979 97.12797500193119 27.629633322358131 100.77505202591419 36.471689000725746 59.627639338374138 67.332682520151138 369.2569452226162 144.03876189887524 39.336104854941368 37.689243093132973 439.3076818138361 204.24619030952454 554.315673828125 138.22840874642134 8.7802806347608549 143.4305312782526 19.870627909898758 102.04039418697357 48.699534013867378
leaf_count=640 3341 3531 1765 908 5086 586 1681 1892 3925 734 1722 456 189 666 214 366 402 1638 645 219 234 3784 1669 5632 1143 78 756 108 513 352
internal_value=-0.000340574 -0.0210998 0.0575534 -0.00112178 -0.0332171 0.00749458 -0.0249494 0.0193074 -0.0203886 0.036683 -0.0216954 0.0689645 0.0101886 -0.00470326 0.00345318 0.0392624 0.0325635 0.0622049 0.0515715 0.0552211 0.0152019 -0.0242278 -0.0190279 -0.045967 -0.0115526 -0.0377446 0.0441621 0.05102 0.03823 -0.0208112
internal_weight=6009.61 4423.47 1586.14 1670.05 2753.42 1177.08 1670.3 597.978 1313.94 560.68 492.969 1025.45 410.426 579.104 315.464 187.552 94.9623 610.424 241.167 98.9637 144.797 1092.77 643.554 1083.12 302.067 190.901 415.883 272.453 121.911 186.928
internal_count=44875 37386 7489 12268 25118 8065 14400 3868 11059 2985 4203 4504 2697 4197 2106 1171 591 2739 1101 585 874 9378 5453 10718 2403 1800 2111 1355 621 1495
is_linear=0
shrinkage=0.05


Tree=10
num_leaves=31
num_cat=0
split_feature=28 13 16 28 13 28 24 8 20 26 24 11 9 28 20 24 6 8 24 15 11 20 28 15 13 21 20 24 9 27
split_gain=2585.84 406.491 135.299 133.309 94.3899 89.9659 50.4978 45.2142 40.7845 33.4246 30.2256 23.6743 23.6163 22.5402 29.2678 20.43 20.4725 19.0754 17.9083 17.6973 17.519 16.4066 20.8214 16.2726 15.9889 15.8636 15.1454 14.9068 14.8475 14.5204
threshold=1.5000000000000002 0.20166666666666647 2.5000000000000004 5.5000000000000009 1.066666666666668 4.5000000000000009 0.046000000000000714 0.25569999999999998 -1.5599999999999996 -0.034999999999999691 -0.021666666666666053 0.37155000000000005 6.6450000000000005 3.5000000000000004 0.25000000000000028 -0.0049999999999985603 0.16500000000000004 0.44770000000000004 -0.0099999999999984528 0.0083333333333333193 0.33095000000000008 2.0950000000000011 4.5000000000000009 0.035000000000000017 2.0350000000000001 -0.0099999999999999863 0.81500000000000006 0.049999999999999385 6.2950000000000008 -0.15499999999999978
decision_type=2 2 2 2 2 2 2 2 2 2 2 2 2 2 2 2 2 2 2 2 2 2 2 2 2 2 2 2 2 2
left_child=2 5 28 4 10 8 11 18 -2 -10 -3 21 -13 14 -12 20 -17 23 -4 27 -9 -6 -23 -16 -5 26 -8 -20 -1 -7
right_child=1 3 7 24 6 29 25 15 9 -11 13 12 -14 -15 17 16 -18 -19 19 -21 -22 22 -24 -25 -26 -27 -28 -29 -30 -31
leaf_value=0.061525849677211503 -0.041657001898092988 -0.021419707947945638 0.0025475064633246648 -0.04207122038868033 -0.0064977718404709492 0.009740726154938123 0.0095406151842580816 0.018610088785394635 -0.006945974086672523 -0.026984669424738369 -0.011654152081860559 0.0087767132833368577 0.048574726046568831 -0.01293588592298122 0.02196560561646509 0.062488212224185935 0.037665417636029382 -0.0037770569635237569 0.033029005137562517 0.062837366065155567 0.05035611135764706 0.025034678804863975 -0.016763450071707302 0.10575727303964794 0.026036804100982032 0.020433158716272031 0.063544386106519066 -0.003053159364089193 0.075070600797343456 -0.047124862291114823
leaf_weight=414.91504499316216 337.43044658005238 316.60448314249516 81.222263649106026 222.91155108809471 239.01594906300306 11.362997680902479 15.706305727362631 94.031461134552956 281.97703675925732 794.2492334395647 168.32521859556437 92.608446672558784 62.387870252132416 324.01029615104198 163.96768642961979 243.64441822469234 126.029764726758 87.76999718695879 104.17048351466656 34.83924126625061 80.801944643259048 116.35266733169556 40.050221830606461 6.0064720809459677 8.9636360406875593 56.56950581818819 74.876512221992016 39.470542907714844 394.88174682855606 930.27518378198147
leaf_count=1788 3270 2579 482 2213 1644 115 96 468 2283 6977 1299 615 399 2609 1190 1105 607 632 590 176 389 724 309 42 78 343 423 226 1658 9546
internal_value=-0.000347938 -0.0203967 0.0537042 -0.00379667 0.000887706 -0.0344653 0.0151891 0.0391775 -0.0264898 -0.0217344 -0.00846479 0.00823319 0.0247959 -0.00299659 0.00456188 0.0473651 0.0540256 0.0151521 0.0220108 0.0308681 0.033282 0.00174094 0.0143314 0.0249266 -0.0394384 0.0412071 0.0541806 0.0231141 0.0681307 -0.0464387
internal_weight=5965.43 4351.42 1614.01 1996.13 1764.25 2355.29 697.567 804.21 1413.66 1076.23 1066.68 550.415 154.996 750.08 426.069 544.508 369.674 257.744 259.703 178.48 174.833 395.419 156.403 169.974 231.875 147.152 90.5828 143.641 809.797 941.638
internal_count=44875 37386 7489 15195 12904 22191 4553 4043 12530 9260 8351 3691 1014 5772 3163 2569 1712 1864 1474 992 857 2677 1033 1232 2291 862 519 816 3446 9661
is_linear=0
shrinkage=0.05


Tree=11
num_leaves=31
num_cat=0
split_feature=28 13 28 7 13 1 24 13 20 24 1 20 16 24 15 0 15 0 24 9 14 12 13 20 13 8 1 17 12 27
split_gain=2319.63 384.914 131.488 121.225 89.6775 79.6001 46.1802 42.7832 40.6942 31.5283 30.992 32.1694 19.7755 18.6575 18.3794 17.6372 17.608 17.1119 16.3021 16.2446 16.6457 16.1156 16.0657 15.6609 15.416 15.0647 15.9604 14.6772 13.829 16.7113
threshold=1.5000000000000002 0.15333333333333202 5.5000000000000009 5.8250000000000011 1.066666666666668 4.5000000000000009 0.019999999999999133 -0.040000000000000473 -1.585 0.049999999999999385 3.5000000000000004 0.25000000000000028 1.5000000000000002 -0.021666666666666053 0.018333333333333337 6.5000000000000009 0.025500000000000012 3.5000000000000004 -0.0033333333333342981 6.745000000000001 0.10425000000000002 0.32995000000000008 -1.4583333333333335 1.24 2.0350000000000001 0.44770000000000004 2.5000000000000004 2.5000000000000004 0.31535000000000007 -0.060000000000000046
decision_type=2 2 2 2 2 2 2 2 2 2 2 2 2 2 2 2 2 2 2 2 2 2 2 2 2 2 2 2 2 2
left_child=3 5 4 7 10 8 12 13 -2 -10 11 -3 14 -1 -6 -15 17 -5 -9 -8 21 -21 -17 28 -4 26 -13 -28 -11 -30
right_child=1 2 24 16 6 -7 19 18 9 23 -12 25 -14 15 -16 22 -18 -19 -20 20 -22 -23 -24 -25 -26 -27 27 -29 29 -31
leaf_value=0.0049036451926463805 -0.04190331804203376 -0.014390557199988101 -0.041992174937070012 0.038948524114330751 -0.0014720799838010556 -0.046083313295990608 0.02031403534298741 0.033333525602452826 -0.025068205771013485 -0.020608131788198557 -0.01739540462119105 0.030156985226975692 -0.013946391058697308 0.010406527840416195 0.023931574788467788 -0.009405687567787405 0.080578713514001477 0.063194929933161961 0.055208336981452402 0.016668872665314857 0.10134126470185348 0.057185616239013741 0.041180305819247837 0.10964178917457963 0.024255700670142773 -0.0055485923780242419 0.025475147176294871 -0.0092447774348533764 0.028913979669115037 -0.022445418282180385
leaf_weight=90.643780842423439 329.44070459902287 254.88527558743954 226.21896632760763 82.212368860840797 152.61958085745573 863.04940190166235 189.35050142556429 126.11961831152439 885.86740792542696 54.51313703507185 520.76732484996319 109.57395970821381 118.01534123718739 80.299064174294472 133.4619150608778 16.911000654101372 127.49006639420986 633.47785013914108 262.3301318436861 47.010794408619404 11.521937042474745 51.350187197327614 218.40166266262531 3.2477289065718642 9.1361257731914503 120.65299346297979 49.619410142302513 78.743472203612328 50.032013237476349 23.174658186733723
leaf_count=510 3310 2041 2328 361 1067 9135 1158 596 7966 421 4322 792 851 430 857 106 526 2656 1174 266 63 291 1130 24 78 890 360 596 391 179
internal_value=-0.000353284 -0.0197094 -0.00423364 0.0502534 0.000273072 -0.0342298 0.0143 0.036242 -0.026631 -0.0216829 -0.00842486 -0.000809942 0.00327495 0.0248979 0.0103792 0.0306402 0.0634593 0.0604097 0.0481061 0.0291887 0.0444815 0.037821 0.0375449 0.00121505 -0.0394205 0.00884314 0.0161409 0.00417641 -0.00154208 0.0126554
internal_weight=5920.14 4282.25 2072.93 1637.89 1837.57 2209.33 703.33 794.705 1346.28 1016.83 1134.24 613.475 404.097 406.256 286.081 315.612 843.18 715.69 388.45 299.233 109.883 98.361 235.313 130.968 235.355 358.59 237.937 128.363 127.72 73.2067
internal_count=44875 37386 15960 7489 13554 21426 4553 3946 12291 8981 9001 4679 2775 2176 1924 1666 3543 3017 1770 1778 620 557 1236 1015 2406 2638 1748 956 991 570
is_linear=0
shrinkage=0.05


Tree=12
num_leaves=31
num_cat=0
split_feature=28 13 28 16 13 1 24 20 8 26 1 20 14 11 6 27 24 13 26 21 13 24 15 0 14 8 27 14 9 18
split_gain=2084.62 363.514 122.938 111.02 80.6939 78.5503 40.6213 39.5366 35.9449 29.7921 28.5048 29.1609 19.7438 19.6868 20.1851 16.0307 15.8873 15.539 15.2128 15.1457 14.0204 13.9388 13.8665 13.6681 15.0551 13.4113 15.4224 17.0994 22.3665 15.6069
threshold=1.5000000000000002 0.15333333333333202 5.5000000000000009 2.5000000000000004 1.066666666666668 4.5000000000000009 0.019999999999999133 -1.585 0.23755000000000001 -0.034999999999999691 3.5000000000000004 0.25000000000000028 0.10425000000000002 0.37885000000000008 0.16500000000000004 0.050000000000000273 0.075000000000000636 2.2833333333333337 -0.19499999999999981 0.015000000000000001 1.5941666666666665 0.048333333333332458 -0.0033333333333333405 10.500000000000002 -0.018825000000000019 0.44770000000000004 0.015000000000000126 0.13533666666666672 5.8050000000000006 2.5000000000000004
decision_type=2 2 2 2 2 2 2 2 2 2 2 2 2 2 2 2 2 2 2 2 2 2 2 2 2 2 2 2 2 2
left_child=3 5 4 20 10 7 13 -2 19 -9 11 -3 15 -6 -15 22 17 -8 -4 -5 23 -12 -10 24 -1 26 27 29 -29 -13
right_child=1 2 18 8 6 -7 16 9 12 -11 21 25 -14 14 -16 -17 -18 -19 -20 -21 -22 -23 -24 -25 -26 -27 -28 28 -30 -31
leaf_value=0.030943890017249287 -0.04116512437757263 -0.01381417685092845 0.084055335760169506 0.0292333696569489 -0.0031793307500207566 -0.045450164778664946 0.017848456155859723 -0.0066219204823381632 0.030189907087991425 -0.026143385002315833 -0.019880623450286627 0.034723981425263298 0.06449278594575171 0.033477982195161453 -0.023714149748481985 0.016873726939512477 0.051234009007749208 0.061248228708072221 -0.040019982620369189 0.0029566901388045517 0.073451651050133224 0.0048220282112506722 0.048059866946654553 0.062497603756558606 0.056515636160725871 -0.0052913975930844797 -0.002621169046738224 0.027321550508115078 0.15901224080823997 0.0019793968833582139
leaf_weight=87.199004650115967 318.85144387930632 252.31117377430201 2.4978066608309737 116.49138733744621 305.62660223245621 832.10631328076124 224.74621117115021 266.34110332280397 182.96680781245232 734.189278870821 448.89515671133995 76.618301913142204 74.846660256385803 80.068660534918308 19.109690204262733 82.969641596078873 56.416617669165134 22.708684891462326 225.68022236227989 103.61767859756947 158.01116995513439 65.428889334201813 266.93662077188492 416.0226704031229 169.32387655973434 120.20339366793633 80.901187151670456 8.4297687113285047 5.2212893292307845 69.306968159973621
leaf_count=372 3310 2041 26 633 2118 9135 1342 2223 865 6758 3812 540 334 521 136 404 315 121 2380 604 643 510 1203 1723 708 890 613 56 36 503
internal_value=-0.000356562 -0.0190386 -0.00404886 0.0471337 0.000252846 -0.03342 0.0134735 -0.0258329 0.0341756 -0.0209468 -0.00805821 -0.000775424 0.0404459 0.00310194 0.0224582 0.0370683 0.0272901 0.0218312 -0.0386618 0.0168635 0.0600493 -0.0167381 0.0407925 0.0569004 0.0478231 0.00834572 0.0151623 0.024178 0.0776909 0.019172
internal_weight=5874.04 4215.66 2064.17 1658.39 1835.99 2151.49 708.676 1319.38 827.829 1000.53 1127.32 612.992 607.72 404.805 99.1784 532.873 303.872 247.455 228.178 220.109 830.557 514.324 449.903 672.546 256.523 360.681 240.478 159.576 13.6511 145.925
internal_count=44875 37386 15960 7489 13554 21426 4553 12291 4043 8981 9001 4679 2806 2775 657 2472 1778 1463 2406 1237 3446 4322 2068 2803 1080 2638 1748 1135 92 1043
is_linear=0
shrinkage=0.05


Tree=13
num_leaves=31
num_cat=0
split_feature=28 13 28 2 1 20 20 28 28 25 22 24 16 18 17 24 17 3 17 24 13 15 15 15 0 13 15 26 12 27
split_gain=1876.4 342.955 115.212 101.966 77.4592 67.895 38.3934 33.2267 30.8459 29.6454 25.0579 24.0463 20.6986 20.397 18.2887 16.531 16.1808 15.5802 19.1784 15.0649 15.0225 14.9314 14.8429 14.095 14.079 14.3945 14.1829 13.7225 14.9419 13.6767
threshold=1.5000000000000002 0.15333333333333202 4.5000000000000009 2.5000000000000004 4.5000000000000009 1.6700000000000004 -1.5599999999999996 5.5000000000000009 3.5000000000000004 1.5000000000000002 -2.0349999999999988 0.048333333333332458 1.5000000000000002 2.5000000000000004 2.5000000000000004 -0.0050000000000003366 3.5000000000000004 39.500000000000007 2.5000000000000004 0.090000000000000316 2.0350000000000001 0.0049999999999999914 -0.0099999999999999655 0.020833333333333332 4.5000000000000009 0.72183333333333366 0.035500000000000025 -0.029999999999999801 0.16870000000000002 -0.15499999999999978
decision_type=2 2 2 2 2 2 2 2 2 2 2 2 2 2 2 2 2 2 2 2 2 2 2 2 2 2 2 2 2 2
left_child=3 4 5 10 6 11 -2 14 -7 -8 21 13 -5 16 27 -12 24 -14 -19 -10 -9 -1 -11 -16 -3 26 -26 28 -4 -6
right_child=1 2 7 12 29 8 9 20 19 22 15 -13 17 -15 23 -17 -18 18 -20 -21 -22 -23 -24 -25 25 -27 -28 -29 -30 -31
leaf_value=-0.011606080119663846 -0.040120876403931048 0.039088706456765807 -0.032611691335369702 0.061881432468022204 0.02117288812518147 0.031068209697728971 -0.0013035586973103375 -0.04058913564147025 -0.00090361130243477364 -0.032450987321517646 0.018635504833663687 0.013681698674571122 0.055743235695968701 -0.014793828941525065 -0.029269773632030833 0.037684857132325021 -0.0095527384768471398 0.05446256858377168 0.030065242211680367 0.074038943841598384 0.025216229473331284 0.042535896442922716 -0.018586631208055884 0.00024798292693568251 -0.012167145752540826 0.016907760474389199 0.075650863058085688 -0.012654632077446912 0.03093332306013305 -0.045465837960461913
leaf_weight=57.422802209854126 318.38809724897146 33.685114689171314 11.423168107867239 434.87493112683296 7.774938575923442 263.79570699483156 172.27971022576094 212.27592817693949 142.27123572677374 322.87910451740026 168.20243261754513 177.26696156710386 314.58487200737 402.45331162959337 170.20476831495762 352.69630353152752 217.77332644164562 137.88603340089321 193.71491466462612 7.0374785065650931 9.0422541350126249 16.362835809588432 480.0781133249402 53.047225303947926 106.381497874856 114.09775280207396 4.8053666651248923 81.409469023346901 48.647167801856995 794.59559363871813
leaf_count=346 3411 246 94 1765 82 1598 1373 2328 924 3037 865 1150 1325 3173 1531 1687 1658 582 832 38 78 87 4470 397 856 768 37 700 384 9053
internal_value=-0.000358019 -0.0183837 -0.0038725 0.0443002 -0.0326154 0.00360264 -0.0250454 -0.022617 0.0207893 -0.0201237 0.0276708 -0.00311779 0.0534479 -0.00650496 -0.013343 0.0315337 0.000492266 0.0477722 0.0402101 0.00262871 -0.0379006 0.000400542 -0.0241617 -0.022256 0.00893933 0.00443132 -0.00837175 0.000721537 0.0188494 -0.0448201
internal_weight=5827.36 4151.61 2055.62 1675.75 2096 1469.57 1293.63 586.05 413.104 975.237 594.684 1056.46 1081.06 879.196 364.732 520.899 476.743 646.186 331.601 149.309 221.318 73.7856 802.957 223.252 258.97 225.285 111.187 141.48 60.0703 802.371
internal_count=44875 37386 15960 7489 21426 10448 12291 5512 2560 8880 2985 7888 4504 6738 3106 2552 3565 2739 1414 962 2406 433 7507 1928 1907 1661 893 1178 478 9135
is_linear=0
shrinkage=0.05


Tree=14
num_leaves=31
num_cat=0
split_feature=28 13 28 7 1 13 20 24 13 24 24 10 8 15 14 16 11 0 14 15 0 19 13 14 28 9 22 20 0 24
split_gain=1690.95 323.324 107.315 94.0406 76.3014 68.1551 37.2505 34.3387 31.7351 27.6601 25.3806 22.9939 35.184 18.1658 21.9582 17.358 16.4593 17.2152 15.8539 15.4937 14.7524 14.5092 14.1612 13.6742 13.5159 13.3404 13.1905 13.1865 12.9878 12.9515
threshold=1.5000000000000002 0.15333333333333202 5.5000000000000009 5.8250000000000011 4.5000000000000009 1.066666666666668 -1.585 0.019999999999999133 -0.1116666666666659 0.049999999999999385 -0.021666666666666053 0.32024999999999998 0.44770000000000004 0.035000000000000017 0.029991666666666614 1.5000000000000002 0.37050000000000005 16.500000000000004 0.0038083333333333307 0.010000000000000024 16.500000000000004 -0.064999999999999988 2.0350000000000001 0.014933333333333383 5.5000000000000009 6.7550000000000008 -2.6649999999999987 1.24 3.5000000000000004 0.036666666666666632
decision_type=2 2 2 2 2 2 2 2 2 2 2 2 2 2 2 2 2 2 2 2 2 2 2 2 2 2 2 2 2 2
left_child=3 4 5 8 6 10 -2 15 26 -8 -3 -12 13 23 -15 18 17 -10 20 28 21 -7 -4 -13 -6 -9 -1 -11 -5 -30
right_child=1 2 22 19 24 7 9 25 16 27 11 12 -14 14 -16 -17 -18 -19 -20 -21 -22 -23 -24 -25 -26 -27 -28 -29 29 -31
leaf_value=-0.014520469719757271 -0.039702098362007998 -0.01921741161546513 -0.039866292431963685 0.025245360841389133 -0.0374920543074597 0.08264829031674481 -0.022831161028167714 0.017014590508147812 0.023592637607375268 -0.000653747877802677 -0.014580571827234845 0.0026510004853680996 -0.013278222237918944 0.032717437129669076 0.18580772530004516 -0.013543750870178329 0.054297650207977201 0.047740916528264309 0.02424089464719751 0.060496902306512258 -0.020246553836100342 0.0060344851109442339 0.023507408141333501 0.023919576635624388 -0.050709478637795659 0.038631970131028273 0.021728558428156602 0.098291423288943039 0.044028732824132506 0.062946591968680951
leaf_weight=26.972671419382095 298.98487846553326 327.18525370955467 205.49194677174091 59.525451317429543 381.50400321930647 6.5353505611419669 840.35475271940231 198.44075564295053 194.40393181145191 126.10299544781446 267.29274336993694 187.28527650237083 196.14655778557062 8.6137113794684392 3.2171038389205924 117.15579517930746 123.73556159436703 118.96975366771221 109.73994595557451 396.01446667313576 59.473960548639297 113.56509718298912 9.2100901082158071 126.69647388905287 392.30684772133827 111.44979581236839 360.74478253722191 3.4596659988164893 275.66899770498276 134.66993732750416
leaf_count=170 3310 2796 2328 255 4321 41 7966 1174 867 991 2140 1483 1535 63 21 851 538 518 709 1605 402 772 78 963 4814 604 1853 24 1138 545
internal_value=-0.000358337 -0.0177443 -0.00370297 0.0417023 -0.0318185 0.000214899 -0.0242721 0.0122518 0.0296203 -0.0195157 -0.00750854 -0.00265461 0.00345261 0.013525 0.0743466 0.00269335 0.0388571 0.0327603 0.00926844 0.0532116 0.000118612 0.0102035 -0.0371477 0.0112332 -0.044193 0.0247891 0.0192068 0.00198835 0.0470713 0.0502374
internal_weight=5780.92 4090.21 2047.5 1690.71 2042.71 1832.8 1268.9 716.361 824.827 969.917 1116.44 789.252 521.959 325.813 11.8308 406.47 437.109 313.374 289.314 865.879 179.574 120.1 214.702 313.982 773.811 309.891 387.717 129.563 469.864 410.339
internal_count=44875 37386 15960 7489 21426 13554 12291 4553 3946 8981 9001 6205 4065 2530 84 2775 1923 1385 1924 3543 1215 813 2406 2446 9135 1778 2023 1015 1938 1683
is_linear=0
shrinkage=0.05


Tree=15
num_leaves=31
num_cat=0
split_feature=28 13 28 16 1 20 20 28 28 26 8 24 11 17 13 14 26 26 11 12 22 0 15 24 28 27 13 24 18 10
split_gain=1525.77 304.533 101.134 87.5311 75.0919 58.6646 36.0721 35.8202 29.4215 26.9151 26.4119 20.9692 18.6744 16.5056 15.8979 15.434 14.509 14.3477 15.05 14.5601 16.8642 13.9976 13.8598 13.8323 13.6954 13.4938 13.2254 12.981 13.1059 13.4962
threshold=1.5000000000000002 0.15333333333333202 4.5000000000000009 2.5000000000000004 4.5000000000000009 1.075 -1.585 2.5000000000000004 5.5000000000000009 -0.034999999999999691 0.25569999999999998 -0.015000000000000123 0.37960000000000005 2.5000000000000004 2.1025000000000005 0.094925000000000051 -0.19499999999999981 -0.029999999999999801 0.33654999999999996 0.35239999999999999 0.72999999999999987 16.500000000000004 0.020833333333333332 -0.0066666666666672638 5.5000000000000009 0.050000000000000273 1.4316666666666682 -0.0099999999999984528 1.5000000000000002 0.24035000000000004
decision_type=2 2 2 2 2 2 2 2 2 2 2 2 2 2 2 2 2 2 2 2 2 2 2 2 2 2 2 2 2 2
left_child=3 4 5 -1 6 11 -2 17 13 -8 27 -3 14 -4 21 25 -10 19 -19 20 -7 -9 -13 -14 -6 -12 -18 -5 -29 -30
right_child=1 2 8 10 24 7 9 12 16 -11 15 22 23 -15 -16 -17 26 18 -20 -21 -22 -23 -24 -25 -26 -27 -28 28 29 -31
leaf_value=0.050717694333223075 -0.038970280441785243 -0.017793492634638405 0.00049296333612096073 -0.0010622468892251785 -0.036740308698217199 -0.010450294467983517 -0.0050952892207083112 0.0038834129426347946 0.082937904319704908 -0.023954748141359221 0.034359908423950584 -0.0039518540276454904 -0.0023244774080473556 -0.021405245480642338 0.031341665339967829 0.054337939485553127 -0.043355585121310818 0.0062476154773798464 0.039764347762983682 0.074276958862968354 0.051034757575312277 -0.018966815243840768 0.017681641849542459 0.032986751206185064 -0.050286742881698571 0.011854182881292932 -0.0086457193523222491 0.058417549918482595 0.0070889303326484177 0.03668233627431499
leaf_weight=847.18114931881428 289.60921489447355 253.78509676456451 141.77688699215651 84.377971708774567 370.1355704665184 16.623883068561554 259.82749769836664 202.48084262013435 2.5162819325923911 695.77665911614895 421.46451777219772 439.56498191505671 39.799933187663555 218.92862102389336 36.289905920624733 80.926362335681915 173.22505003213882 76.807566873729229 59.390970028936863 31.118057176470757 33.883816674351692 100.1808151230216 89.031971536576748 91.478485308587551 376.23196847736835 79.102479353547096 32.610191017389297 22.40906497836113 107.4250853061676 60.070008888840675
leaf_count=3446 3310 2104 1178 482 4321 99 2223 1382 26 6758 1854 3336 271 1928 200 345 2038 490 364 173 180 688 631 530 4814 370 342 105 578 309
internal_value=-0.000357315 -0.0171212 -0.00354078 0.0393246 -0.0310284 0.0033857 -0.0235118 0.0140353 -0.0214387 -0.0188269 0.028046 -0.00597993 0.00627067 -0.0127981 6.96023e-05 0.0340787 -0.0363977 0.0307973 0.020863 0.0473733 0.0307978 -0.00368 -0.000308108 0.0222814 -0.0435689 0.0308034 -0.0378565 0.0152562 0.0225067 0.0177022
internal_weight=5734.03 4031.07 2039.49 1702.96 1991.58 1470.44 1245.21 688.054 569.057 955.604 855.775 782.382 470.23 360.706 338.952 581.493 208.352 217.824 136.199 81.6258 50.5077 302.662 528.597 131.278 746.368 500.567 205.835 274.282 189.904 167.495
internal_count=44875 37386 15960 7489 21426 10448 12291 4377 5512 8981 4043 6071 3071 3106 2270 2569 2406 1306 854 452 279 2070 3967 801 9135 2224 2380 1474 992 887
is_linear=0
shrinkage=0.05


Tree=16
num_leaves=31
num_cat=0
split_feature=28 13 28 7 1 13 20 24 25 13 1 20 14 6 3 15 15 27 20 0 23 6 8 10 24 24 0 13 9 24
split_gain=1377.84 286.538 93.5429 80.7078 73.8285 58.134 34.8939 29.5494 25.6642 25.6635 24.0067 25.0041 16.3103 17.672 20.4026 14.7914 14.6113 13.9036 14.2378 13.5753 13.5722 15.6459 13.457 14.7032 14.1701 13.3851 14.4636 13.1804 12.6142 12.5544
threshold=1.5000000000000002 0.15333333333333202 5.5000000000000009 5.8250000000000011 4.5000000000000009 1.066666666666668 -1.585 0.046000000000000714 1.5000000000000002 -0.040000000000000473 3.5000000000000004 -0.045000000000000366 -0.024458333333333328 0.16500000000000004 56.500000000000007 0.025500000000000012 -0.0099999999999999655 -0.15499999999999978 -1.0000000180025095e-35 3.5000000000000004 6.7650000000000006 0.18500000000000003 0.44770000000000004 0.35250000000000009 0.0016666666666673715 -0.021666666666666053 6.5000000000000009 2.0350000000000001 7.245000000000001 0.036666666666666632
decision_type=2 2 2 2 2 2 2 2 2 2 2 2 2 2 2 2 2 2 2 2 2 2 2 2 2 2 2 2 2 2
left_child=3 4 5 9 6 10 -2 12 -8 25 11 -3 -7 14 -14 19 -10 18 -6 -5 21 -11 23 -13 -25 -1 -27 -4 -15 -21
right_child=1 2 27 15 17 7 8 -9 16 20 -12 22 13 28 -16 -17 -18 -19 -20 29 -22 -23 -24 24 -26 26 -28 -29 -30 -31
leaf_value=0.0008348676372844857 -0.03823945061177822 -0.016115095584681813 -0.038454728319357701 0.026404018414522196 -0.018182328239926424 -0.0052808852198915658 -0.00060898373394308904 0.030235436192676893 -0.030467304878468632 0.05155533353630283 -0.015151370039326931 0.0004275913020372284 0.016244042091159646 -0.015498402913596977 0.11893269326808642 0.063269027304107633 -0.016418487642017636 -0.043654321301034915 0.13580174502561879 0.042622366482697675 0.027129848797696851 0.008885744737944682 -0.0063625972082509783 0.0060830716694864687 0.036805323190468454 0.0042876954780627545 0.028226412639847806 0.022430286993299617 0.062453442959233343 0.05731775118718696
leaf_weight=94.087265744805336 280.61699484288692 177.96940986067057 192.96179240196943 86.380399137735367 5.3396384194493294 207.97873563319445 170.68662069737911 159.20737157016993 308.35757241398096 150.94316036999226 498.62147840857506 135.41803007572889 276.96544521301985 67.678746789693832 4.9230187162756911 130.84850934147835 462.92086133360863 712.61014216393232 2.088262476027011 438.76229384541512 235.60304556787014 25.048488810658455 143.05612894147635 67.809757925570011 84.058367811143398 84.406823441386223 249.93887904286385 9.3181758373975736 5.6207529604434958 217.32307974994183
leaf_count=510 3310 1487 2328 361 59 1407 1382 862 3077 641 4322 1014 1745 471 30 526 4522 9053 23 1782 1017 112 1088 516 574 430 1236 78 38 874
internal_value=-0.000355372 -0.016514 -0.00338555 0.0371255 -0.0302436 0.000182173 -0.0227632 0.0112159 -0.0181527 0.0260607 -0.00701832 -0.000351813 0.00583905 0.0123503 0.0180374 0.0477686 -0.0220352 -0.042945 0.0251084 0.0450369 0.0349771 0.0454823 0.00616714 0.0124064 0.0230877 0.0174948 0.022183 -0.03565 -0.0095209 0.0474901
internal_weight=5687.55 3974.21 2031.59 1713.34 1942.62 1829.31 1222.58 722.374 941.965 840.028 1106.93 608.312 563.167 355.188 281.888 873.314 771.278 720.038 7.4279 742.466 411.595 175.992 430.342 287.286 151.868 428.433 334.346 202.28 73.2995 656.085
internal_count=44875 37386 15960 7489 21426 13554 12291 4553 8981 3946 9001 4679 3691 2284 1775 3543 7599 9135 82 3017 1770 753 3192 2104 1090 2176 1666 2406 509 2656
is_linear=0
shrinkage=0.05


Tree=17
num_leaves=31
num_cat=0
split_feature=28 13 28 16 28 20 26 13 28 28 6 24 14 9 20 15 20 0 26 22 7 12 22 11 27 17 28 3 13 8
split_gain=1245.4 269.399 87.4309 74.6222 72.5222 50.0189 34.1534 27.6325 24.2689 23.5265 23.212 21.7902 20.629 25.5536 20.0156 18.4985 18.497 17.9895 16.9226 15.7969 15.432 20.8612 15.0077 14.6814 14.6517 14.5654 13.2451 12.8748 14.3081 12.921
threshold=1.5000000000000002 0.15333333333333202 4.5000000000000009 2.5000000000000004 4.5000000000000009 1.6700000000000004 -0.034999999999999691 1.6266666666666667 3.5000000000000004 5.5000000000000009 0.16500000000000004 -0.0016666666666673711 0.0045416666666666669 5.4250000000000007 0.28499999999999975 -0.018166666666666647 -1.585 6.5000000000000009 0.020000000000000021 -2.0349999999999988 5.9050000000000011 0.32995000000000008 -1.1849999999999998 0.33265000000000006 -0.15499999999999978 2.5000000000000004 5.5000000000000009 36.500000000000007 1.4100000000000008 0.31640000000000001
decision_type=2 2 2 2 2 2 2 2 2 2 2 2 2 2 2 2 2 2 2 2 2 2 2 2 2 2 2 2 2 2
left_child=3 4 5 -1 6 12 15 9 -7 25 11 23 18 14 -14 -2 -8 20 -3 -12 21 -15 -20 -5 -6 -4 -26 -19 29 -29
right_child=1 2 7 10 24 8 16 -9 -10 -11 19 -13 13 17 -16 -17 -18 27 22 -21 -22 -23 -24 -25 26 -27 -28 28 -30 -31
leaf_value=0.045611623461928118 -0.028777437751344455 -0.0017833220722110325 -0.0026571025237094288 0.0031337853331136279 0.017203362050419956 0.026502583163379462 -0.039857811165957026 0.0078265058102645457 0.0015061023940011987 -0.039308953410442882 -0.0095458102779824375 0.039878359473542603 -0.030722369304035338 0.011505183205090128 0.0049002924167096578 -0.00027016628612830336 -0.022800814548445441 0.025358708308682129 0.055366203140219783 0.019815112557767141 0.021093399368640624 0.11338903971193207 -0.020958152127794314 0.034149802277864391 -0.035859922925892594 -0.025103689408478382 -0.04957138179917786 0.050729816066033155 0.038496554980474343 -0.011175250675373677
leaf_weight=852.09620471298695 75.875552028417587 349.96172255277634 119.48818307369947 85.647839233279228 10.289893515408037 273.31151922047138 208.52746348828077 75.865769386291504 150.61298467963934 174.03395795822144 52.771341949701309 314.92139472067356 70.268329627811909 8.4619147181510943 89.858557231724262 227.63062310963869 668.39353326708078 66.271782293915749 6.6189238876104346 347.33877927064896 52.199666947126389 12.367147244513033 239.10774022340775 68.803797289729118 343.33010555803776 182.88726711273193 361.65911623835564 9.0453335270285589 19.908093720674515 123.74212466925383
leaf_count=3446 724 2604 1027 403 113 1598 2540 616 962 2176 313 1351 580 65 642 2055 6698 466 57 1668 353 90 1932 308 4306 1693 4990 69 110 920
internal_value=-0.000352316 -0.0159217 -0.00323582 0.0350962 -0.0294661 0.00313007 -0.0218534 -0.0202 0.0176218 -0.0246631 0.024791 0.0323337 -0.00273299 0.00531985 -0.010732 -0.00739689 -0.0268569 0.0141225 -0.00884504 0.0159426 0.0356123 0.0719982 -0.0189023 0.0169505 -0.0420293 -0.0162336 -0.0428939 0.00695528 -0.00103204 -0.00695835
internal_weight=5641.3 3919.72 2024.01 1721.58 1895.71 1471.74 1180.43 552.275 423.925 476.409 869.483 469.373 1047.81 452.123 160.127 303.506 876.921 291.996 595.688 400.11 73.0287 20.8291 245.727 154.452 715.279 302.375 704.989 218.967 152.696 132.787
internal_count=44875 37386 15960 7489 21426 10448 12017 5512 2560 4896 4043 2062 7888 3295 1222 2779 9238 2073 4593 1981 508 155 1989 711 9409 2720 9296 1565 1099 989
is_linear=0
shrinkage=0.05


Tree=18
num_leaves=31
num_cat=0
split_feature=28 13 28 1 7 13 20 1 20 8 11 26 24 26 14 0 28 26 24 13 19 14 27 22 24 10 22 11 26 10
split_gain=1126.26 253.011 81.5591 71.3048 70.8435 50.0076 32.9949 28.7741 31.8126 26.4198 24.9364 23.9751 22.742 15.6272 14.7713 14.9941 14.5372 13.7554 13.0559 12.4997 12.0574 16.8364 11.9997 11.7147 11.5986 11.7003 13.389 12.3179 11.5957 11.1356
threshold=1.5000000000000002 0.15333333333333202 5.5000000000000009 4.5000000000000009 6.0650000000000004 1.365 -1.5599999999999996 3.5000000000000004 0.38000000000000017 0.25569999999999998 0.37155000000000005 -0.034999999999999691 0.073333333333334597 0.024999999999999915 0.094925000000000051 16.500000000000004 5.5000000000000009 -0.19499999999999981 0.020000000000000021 1.4316666666666682 -0.020000000000000007 0.053608333333333293 0.069999999999999854 -0.26500000000000007 -0.010000000000000229 0.41200000000000009 0.81500000000000006 0.43695000000000001 -0.15999999999999967 0.24885000000000004
decision_type=2 2 2 2 2 2 2 2 2 2 2 2 2 2 2 2 2 2 2 2 2 2 2 2 2 2 2 2 2 2
left_child=4 3 5 6 9 7 -2 8 13 22 18 29 -9 -3 15 -11 28 -4 -7 -19 21 -10 -1 -23 -25 27 -27 -26 -5 -8
right_child=1 2 17 16 -6 10 11 12 20 14 -12 -13 -14 -15 -16 -17 -18 19 -20 -21 -22 23 -24 24 25 26 -28 -29 -30 -31
leaf_value=0.015593226425143564 -0.036524339993717868 -0.0013096032619679763 0.08131447731068718 0.038968375162700061 0.044989185091751246 -0.0021347176558558305 -0.016055459066565053 -0.014974196377261799 0.012653690750401628 0.021486876295662441 0.031349813989253503 -0.021771317366973429 0.026968025393352413 -0.024562881204171674 0.048797743457146658 0.038072341906963778 -0.049106901356010875 -0.04152502269774027 0.018448681929523817 -0.0070796054997694109 0.0042892980623865469 0.11877836523344637 -0.015687837836683281 -0.014641255693493296 0.06680265718924204 0.036700807415611512 0.13860437612116475 -0.042411471362601288 -0.035559489734890502 0.0051928837170882591
leaf_weight=256.9305025190115 273.2162079513073 181.17405239492655 2.5436711013317099 5.3024977073073378 733.7563493847847 184.96186915785074 105.68818048387766 583.38588463515043 123.10137204825878 409.96188136935234 147.062391102314 652.87142550200224 34.215149790048599 120.18016689270735 88.981232464313507 204.12198732793331 333.68944127112627 156.81047765165567 132.03287149965763 31.654332004487514 283.42582319676876 5.4778307899832717 34.812343776226044 7.5040429383516338 5.7107165008783358 6.3215902075171453 6.576887384057045 4.7120505422353745 332.04474304616451 148.01250007748604
leaf_count=1327 3411 1435 26 63 2963 1228 934 4986 843 1772 819 6672 252 1042 370 862 4814 2038 705 342 2023 34 195 52 34 36 36 29 4258 1274
internal_value=-0.000349344 -0.0153448 -0.00309408 -0.0286944 0.0332031 0.000158018 -0.0212929 -0.00467243 0.00194866 0.0245098 0.0143331 -0.0167026 -0.0126506 -0.010583 0.0297587 0.0269999 -0.0417074 -0.0341808 0.00643856 -0.0357396 0.0104767 0.0214781 0.0118606 0.051401 0.0394277 0.0568254 0.0886611 0.0174278 -0.034388 -0.00365888
internal_weight=5596.24 3867.68 2016.85 1850.82 1728.56 1825.84 1179.79 1361.79 744.185 994.808 464.057 906.572 617.601 301.354 703.065 614.084 671.037 191.008 316.995 188.465 442.83 159.404 291.743 36.3031 30.8253 23.3212 12.8985 10.4228 337.347 253.701
internal_count=44875 37386 15960 21426 7489 13554 12291 10802 5564 4526 2752 8880 5238 2477 3004 2634 9135 2406 1933 2380 3087 1064 1522 221 187 135 72 63 4321 2208
is_linear=0
shrinkage=0.05


Tree=19
num_leaves=31
num_cat=0
split_feature=28 13 28 1 7 13 20 8 24 24 25 0 15 11 28 25 16 28 28 20 12 11 15 10 27 26 13 8 8 27
split_gain=1019.08 237.382 76.0244 69.8404 64.9412 45.1055 31.7949 24.4175 23.808 22.9853 20.5495 19.6784 18.1208 17.1681 18.5087 16.058 15.0245 14.6879 14.4613 15.8341 14.3766 16.9149 13.2909 12.7312 12.9052 12.323 12.1313 11.9763 12.6196 15.8062
threshold=1.5000000000000002 0.15333333333333202 5.5000000000000009 4.5000000000000009 6.0950000000000006 1.066666666666668 -1.585 0.23755000000000001 0.046000000000000714 0.051666666666666312 4.5000000000000009 6.5000000000000009 0.02 0.38565000000000005 4.5000000000000009 1.5000000000000002 1.5000000000000002 5.5000000000000009 3.5000000000000004 1.1200000000000006 0.32380000000000003 0.35305000000000003 -0.0083333333333333367 0.32815000000000005 -0.029999999999999801 -0.19499999999999981 1.4316666666666682 0.22345000000000001 0.37090000000000001 -0.16500000000000001
decision_type=2 2 2 2 2 2 2 2 2 2 2 2 2 2 2 2 2 2 2 2 2 2 2 2 2 2 2 2 2 2
left_child=4 3 5 6 7 10 -2 -1 16 22 12 -9 13 14 -3 -13 18 -5 19 -7 -11 -22 -8 -15 -25 -4 -27 -23 29 -29
right_child=1 2 25 17 -6 8 9 11 -10 20 -12 15 -14 23 -16 -17 -18 -19 -20 -21 21 27 -24 24 -26 26 -28 28 -30 -31
leaf_value=0.0094257274156798101 -0.036120001075594696 -0.0059884749834394884 0.072443011522275974 -0.033642697946071658 0.042983657515680368 -0.0055746426007497983 -0.027187792656381316 0.013143241725554408 0.026579781631804373 -0.014602344635296555 -0.017445802338346594 0.045088398924396353 0.01430981291398473 -0.010961120618511067 -0.03192040596928588 0.026870611575700892 -0.0082595024932746869 -0.04870112652999134 -3.4982687727929541e-05 0.02620763803431328 -0.0071461947229364102 -0.011686545087001456 -0.013924149652511023 0.033510336025447521 0.00064328256350267433 -0.04087696651337093 -0.006764146136248996 0.20241339695565849 0.015366816578219042 0.06604377481693964
leaf_weight=241.06014011800289 256.54894508421421 389.45881272107363 2.7078383788466445 327.84155270457268 715.42696943879128 51.197290018200874 316.70634543150663 179.95587354898453 163.32776606082916 54.398811332881451 299.52146677672863 168.39742936193943 139.15735092014074 61.406630486249924 83.575214378535748 429.38441966474056 156.64250355958939 319.99347879737616 192.95903450250626 167.08064033091068 29.97915730625391 7.4916981011629096 467.92790403962135 59.642741627991199 59.82334478199482 151.46799447387457 31.478660807013512 2.492749951779845 10.030950762331484 14.397817797958853
leaf_count=1272 3310 3050 26 4321 2888 335 3307 788 862 436 2664 702 1045 495 837 1839 1105 4814 1306 945 238 62 4728 442 468 2038 342 21 76 113
internal_value=-0.000345372 -0.0147847 -0.00295818 -0.0279303 0.0314375 0.000144759 -0.0205859 0.0233294 0.00975655 -0.0161746 -0.00628788 0.0276389 -0.0020738 -0.00556038 -0.0105701 0.0320026 0.00491802 -0.0410807 0.00993741 0.0187531 0.00432235 0.02031 -0.0192778 0.00754147 0.017052 -0.0334402 -0.0350074 0.0442285 0.0597885 0.0861695
internal_weight=5551.48 3817.26 2009.45 1807.81 1734.22 1823.79 1159.97 1018.8 731.207 903.425 1092.59 777.738 793.064 653.907 473.034 597.782 567.879 647.835 411.237 218.278 118.791 64.3924 784.634 180.873 119.466 185.654 182.947 34.4132 26.9215 16.8906
internal_count=44875 37386 15960 21426 7489 13554 12291 4601 4553 8981 9001 3329 6337 5292 3887 2541 3691 9135 2586 1280 946 510 8035 1405 910 2406 2380 272 210 134
is_linear=0
shrinkage=0.05


Tree=20
num_leaves=31
num_cat=0
split_feature=28 13 28 28 16 20 28 26 11 18 25 25 20 15 22 15 11 26 20 24 28 9 21 13 9 9 27 24 0 14
split_gain=922.531 222.553 70.8336 68.5059 61.7775 41.3293 30.6389 30.4627 22.2651 19.1223 18.8702 18.8484 17.6354 16.869 16.7133 16.0876 15.7697 15.446 14.7731 14.4175 14.6163 13.118 20.4815 12.5555 12.4884 13.6854 12.6202 12.2018 12.0073 12.8215
threshold=1.5000000000000002 0.15333333333333202 5.5000000000000009 4.5000000000000009 2.5000000000000004 1.6700000000000004 3.5000000000000004 -0.034999999999999691 0.38265000000000005 3.5000000000000004 1.5000000000000002 1.5000000000000002 -1.9999999999999996 -0.018166666666666647 -1.9849999999999997 0.016333333333333328 0.45090000000000002 -0.084999999999999951 0.95000000000000051 0.15333333333333291 5.5000000000000009 7.705000000000001 -0.025000000000000005 1.5941666666666665 5.6050000000000013 1.4950000000000003 -0.015000000000000123 0.046666666666667307 10.500000000000002 -0.018825000000000019
decision_type=2 2 2 2 2 2 2 2 2 2 2 2 2 2 2 2 2 2 2 2 2 2 2 2 2 2 2 2 2 2
left_child=4 3 5 7 23 8 -7 13 15 10 -6 -8 -9 -2 -11 27 -12 -17 24 20 -5 -13 -23 28 25 -10 -26 -3 29 -1
right_child=1 2 -4 19 9 6 11 12 18 14 16 21 -14 -15 -16 17 -18 -19 -20 -21 -22 22 -24 -25 26 -27 -28 -29 -30 -31
leaf_value=0.013025869991215739 -0.026959936440978424 -0.01601048045124415 -0.032702291732654896 -0.033158365643499596 0.043303313089680939 0.023112624356297101 0.023225565778918239 -0.04235096922426472 0.048205093739911088 -0.01373285432828103 0.017793692755586885 -0.010921872574796118 -0.021626598937843636 0.00083873256226602976 0.016451842960956836 0.038195864462498834 0.054528034265746428 -0.0025005440937494417 0.021140382292832795 0.062690888996125224 -0.048252387043850153 0.10873462896062724 -0.011141141037409277 0.052075290595798365 0.023499153637381458 -0.020459659799890947 -0.0069798840241633645 0.0030369131248945873 0.041700517237304224 0.036092694593992392
leaf_weight=91.664366960525513 72.184033364057541 556.0015930980444 180.52111602574587 320.85828837007284 132.75358931720257 280.66635181754827 65.078688830137253 120.12417030334473 7.9020937532186499 52.771010860800743 318.1628560423851 197.6820395886898 705.70040925592184 223.69245384633541 350.15006932616234 25.820276737213135 32.16985946893692 240.34831010550261 109.70621322095394 3.3894211649894705 320.68582487851381 6.0374608039855948 8.6945376619696599 158.84490995109081 69.731306493282318 88.822378225624561 66.211122937500477 99.059748776257038 426.4218358695507 175.74058206379414
leaf_count=372 724 4746 2406 4368 563 1598 396 1610 63 309 1416 1491 7628 2055 1618 172 137 1799 729 42 4999 36 58 643 502 733 535 696 1723 708
internal_value=-0.000341028 -0.0142399 -0.00282723 -0.027175 0.0297875 0.000133139 0.0114644 -0.0197091 -0.00487213 0.0205416 0.02725 -0.000316962 -0.0246412 -0.00594322 0.0124985 -0.00891828 0.0211669 0.0014473 0.00601495 -0.04016 -0.0407033 -0.00752984 0.0379863 0.0393948 -0.00111693 -0.01485 0.00865426 -0.0131301 0.0364918 0.0281856
internal_weight=5507.6 3768.92 2002.28 1766.63 1738.68 1821.76 558.159 1121.7 1263.6 886.007 483.086 277.493 825.825 295.876 402.921 921.23 350.333 266.169 342.373 644.934 641.544 212.414 14.732 852.672 232.667 96.7245 135.942 655.061 693.827 267.405
internal_count=44875 37386 15960 21426 7489 13554 3579 12017 9975 4043 2116 1981 9238 2779 1927 7413 1553 1971 2562 9409 9367 1585 94 3446 1833 796 1037 5442 2803 1080
is_linear=0
shrinkage=0.05


Tree=21
num_leaves=31
num_cat=0
split_feature=28 13 28 2 13 1 24 24 26 9 15 24 28 20 11 13 22 6 6 11 22 13 28 9 13 9 10 24 20 14
split_gain=835.557 210.451 90.8615 56.9681 52.0528 44.7804 24.6953 20.4403 20.0586 18.3078 16.1366 16.0354 15.9697 15.2081 15.2074 14.3541 13.8188 13.7131 13.6102 17.0064 13.3898 12.3158 11.9991 11.4057 11.236 11.1406 10.9601 10.9279 13.3133 10.722
threshold=1.5000000000000002 -0.15749999999999972 5.5000000000000009 2.5000000000000004 1.066666666666668 3.5000000000000004 -0.021666666666666053 0.019999999999999133 0.029999999999999808 5.5250000000000012 0.021666666666666657 -0.0066666666666654875 5.5000000000000009 1.0500000000000003 0.39405000000000007 0.99166666666666681 -1.2349999999999997 0.16500000000000004 0.16500000000000004 0.38265000000000005 -2.0349999999999988 -0.21833333333333235 4.5000000000000009 7.9300000000000006 -1.0483333333333333 7.6150000000000011 1.0000000180025095e-35 0.11183333333333369 -0.69999999999999984 -0.026149999999999975
decision_type=2 2 2 2 2 2 2 2 2 2 2 2 2 2 2 2 2 2 2 2 2 2 2 2 2 2 2 2 2 2
left_child=3 5 4 20 6 8 -3 18 9 26 13 -5 24 22 23 -4 21 -18 19 -6 -1 -13 -8 -15 -7 -20 -2 -28 -29 -11
right_child=1 2 15 11 7 12 10 -9 -10 29 -12 16 -14 14 -16 -17 17 -19 25 -21 -22 -23 -24 -25 -26 -27 27 28 -30 -31
leaf_value=-0.0033301181466876164 -0.041525036702621122 -0.017369472821541155 -0.042749604222816553 0.025164576907577476 -0.00063591047953639426 -0.043801748644536377 -0.0066591050228555328 0.018248016117361678 -0.03090408038010288 -0.015379610613194981 0.012048509959305292 0.035923187959069923 -0.048167649887810034 -0.0034415539404830798 0.028668286403652821 -0.015021364332917739 0.04299746460374073 0.026169855411201384 -0.020359565124614801 0.025456766855675345 0.018993543271766129 -0.040616641881746657 -0.025094873449332818 0.097213937597083536 -0.027736632233916505 0.081045618193206687 -0.014435902822670496 -0.01092765749284012 0.14274995410921984 0.027756740931346852
leaf_weight=76.357660681009293 38.544120095670223 436.83643168210983 165.82079015672207 297.20217542350292 245.97039260715246 158.35952210426331 555.87489621341228 325.25269211828709 208.49699264764786 21.918200984597206 148.68798183649778 10.822230845689775 251.81226629018784 170.79626750200987 53.671925336122513 64.957049421966076 639.30516101419926 149.35185816884041 78.446052722632885 83.696735762059689 558.3149156421423 10.217844679951666 104.9197011962533 2.8615685924887648 348.05268383771181 2.805366411805152 207.30948080867529 3.2611311376094818 2.481834039092063 42.027617134153843
leaf_count=433 433 4286 2489 1221 1668 2111 4743 1778 2509 224 1148 46 4097 1361 379 810 2588 607 584 504 2552 42 1206 21 4262 19 2281 33 20 420
internal_value=-0.000335744 -0.0137084 -0.00509158 0.0282502 -0.00197391 -0.0301092 -0.00739774 0.00888337 -0.0188699 -0.0109182 -0.00319638 0.0350978 -0.0378772 -0.00574865 0.00540652 -0.0349449 0.0387438 0.0398107 0.00147102 0.00598857 0.0163078 -0.00124741 -0.0095863 -0.00178293 -0.0327603 -0.0168584 -0.0169899 -0.0125512 0.0554844 0.0129712
internal_weight=5464.43 3722.86 2440.6 1741.57 2209.82 1282.26 1473.65 736.171 524.039 315.542 1036.81 1106.9 758.224 888.124 227.33 230.778 809.697 788.657 410.919 329.667 634.673 21.0401 660.795 173.658 506.412 81.2514 251.597 213.052 5.74297 63.9458
internal_count=44875 37386 20996 7489 17697 16390 13144 4553 5920 3411 8858 4504 10470 7710 1761 3299 3283 3195 2775 2172 2985 88 5949 1382 6373 603 2767 2334 53 644
is_linear=0
shrinkage=0.05


Tree=22
num_leaves=31
num_cat=0
split_feature=28 13 28 16 13 1 25 24 15 16 24 20 6 14 28 20 26 13 26 17 15 20 13 26 0 3 24 11 11 0
split_gain=756.88 197.996 85.1043 54.3488 47.0548 44.0234 22.988 20.5388 20.1731 19.7095 17.7508 17.4093 16.3436 16.2929 15.0992 22.4627 15.1118 14.1108 13.8949 13.6045 12.5394 12.4448 11.6951 11.3255 11.2708 15.4673 13.6768 11.5127 13.9553 11.1774
threshold=1.5000000000000002 -0.15749999999999972 5.5000000000000009 2.5000000000000004 1.066666666666668 4.5000000000000009 4.5000000000000009 -0.010000000000000229 0.02 1.5000000000000002 -0.0049999999999985603 -0.27000000000000018 0.16500000000000004 0.0045416666666666669 3.5000000000000004 0.25000000000000028 -0.15999999999999967 1.2233333333333334 -0.20500000000000004 5.5000000000000009 0.020833333333333332 0.60000000000000042 1.5941666666666665 -0.20500000000000004 3.5000000000000004 35.500000000000007 0.0099999999999993445 0.28860000000000002 0.23775000000000004 10.500000000000002
decision_type=2 2 2 2 2 2 2 2 2 2 2 2 2 2 2 2 2 2 2 2 2 2 2 2 2 2 2 2 2 2
left_child=3 5 4 22 6 7 8 -2 14 13 19 18 -12 20 15 -3 -16 -4 -9 -5 -6 -15 29 -7 -11 26 -26 28 -28 -1
right_child=1 2 17 10 9 23 -8 11 -10 24 12 -13 -14 21 16 -17 -18 -19 -20 -21 -22 -23 -24 -25 25 -27 27 -29 -30 -31
leaf_value=0.025054597138219076 -0.031214394005613294 -0.011489148831976555 -0.040452415153516247 0.012971871657008119 -0.0025835842133694817 0.050098325008653681 -0.01707253810939318 0.083264088479374637 0.012728679356923862 0.02933238989201601 0.030604994435960559 0.0022108839186131177 0.013977782180774403 -0.01455961494144925 0.046942581445529999 0.009355933976577014 -0.015626475116214806 -0.008920634982614091 -0.021766418240859033 -0.015818266950295059 0.018303823282923969 0.026518550035544538 0.048163195671514086 -0.04232272795850639 -0.018153653315574794 -0.020295040289639896 0.030536449264245848 0.0068798755915055248 0.13307835992893588 0.038101312928446811
leaf_weight=267.56158936023712 351.07832397148013 249.01727322489023 179.80836307257414 247.50073146820068 183.31088776141405 3.3390267491340628 412.79629787802696 3.1796688959002486 168.07512387633324 21.221584238111973 330.04496333003044 110.1736256480217 267.63734903931618 20.127907663583755 9.918610639870165 268.6871180459857 356.61930904537439 44.203317403793335 325.94746663793921 49.187934875488281 118.17590894550085 219.56904417276382 157.28266794979572 456.77206319198012 25.09398677200079 113.3415205553174 10.551588378846644 22.933496378362179 4.8399578332900992 424.8055917173624
leaf_count=1080 4316 2229 2766 1171 1181 46 4081 29 1307 143 1382 1078 1253 123 84 1986 3457 533 3736 237 694 1218 643 7185 185 777 64 137 31 1723
internal_value=-0.000330307 -0.0131919 -0.00486786 0.0267996 -0.00188387 -0.0293562 -0.00707275 -0.0221983 -0.0031501 0.00840111 0.0181966 -0.0149929 0.0231595 0.0133394 -0.0061683 -0.00067061 -0.0139333 -0.0342304 -0.0207517 0.00819876 0.0056038 0.0230691 0.0358554 -0.041652 -0.00509772 -0.00923134 0.0105415 0.0293302 0.0627813 0.0330595
internal_weight=5422.8 3678.78 2428.29 1744.02 2204.28 1250.49 1465.11 790.379 1052.32 739.166 894.371 439.301 597.682 541.184 884.242 517.704 366.538 224.012 329.127 296.689 301.487 239.697 849.65 460.111 197.982 176.761 63.419 38.325 15.3915 692.367
internal_count=44875 37386 20996 7489 17697 16390 13144 9159 9063 4553 4043 4843 2635 3216 7756 4215 3541 3299 3765 1408 1875 1341 3446 7231 1337 1194 417 232 95 2803
is_linear=0
shrinkage=0.05


Tree=23
num_leaves=31
num_cat=0
split_feature=28 13 28 7 20 1 1 26 24 24 13 20 23 14 24 28 9 13 20 18 10 11 15 10 13 3 22 22 0 27
split_gain=685.895 186.049 79.6543 51.2802 43.4931 43.2786 40.0729 20.4327 20.3926 19.644 18.5136 16.9985 14.2636 14.0963 14.0778 13.9525 18.6593 13.9289 13.4404 12.983 12.5545 16.0342 17.958 12.8553 12.3166 13.0768 12.772 12.0384 11.5664 13.678
threshold=1.5000000000000002 -0.15749999999999972 5.5000000000000009 6.0950000000000006 1.1499999999999999 4.5000000000000009 2.5000000000000004 -0.064999999999999933 0.046000000000000714 -0.010000000000000229 0.78916666666666668 -1.5399999999999996 6.5850000000000009 -0.058758333333333294 0.10166666666666614 3.5000000000000004 7.4850000000000012 0.99166666666666681 3.5550000000000002 2.5000000000000004 0.35310000000000002 0.37155000000000005 0.010000000000000024 0.48040000000000005 -1.4249999999999994 23.500000000000004 -2.6649999999999987 3.225000000000001 4.5000000000000009 0.14999999999999994
decision_type=2 2 2 2 2 2 2 2 2 2 2 2 2 2 2 2 2 2 2 2 2 2 2 2 2 2 2 2 2 2
left_child=3 5 4 10 8 9 -6 12 19 -2 24 -11 -8 -13 -15 -9 -17 -4 -18 -3 -14 22 -22 -23 -1 -26 -27 -24 -28 -30
right_child=1 2 17 -5 6 -7 7 15 -10 11 -12 13 20 14 -16 16 18 -19 -20 -21 21 23 27 -25 25 26 28 -29 29 -31
leaf_value=-0.012653480028875737 -0.030443800056760381 -0.0048028026288478177 -0.041610054826408137 0.035796306781222691 0.025995365851477954 -0.041060044329533779 0.090358442056460708 0.0064948682305744701 0.0060500526764123933 -0.030328145465296764 0.032754443882694516 -0.029952183225793957 -0.0099501110962519918 -0.005702040439545762 0.049977035732830938 -0.014427573025440611 0.012442420429818217 -0.013738774813810799 0.10439789763381038 -0.015741287660682304 -0.019554517286710683 0.075292896498596815 0.021081530518000515 0.020500665653767857 0.046869717613673055 -0.032076745357512954 0.0021709876452699756 0.11113809190606912 0.019451315901575141 -0.062409795936878315
leaf_weight=37.804195389151573 342.19502162188292 527.82167299091816 154.36200753599405 709.55119933187962 207.41459629684687 443.83693050593138 6.2787952721118918 197.92751006036997 227.1241417080164 121.11720526963472 183.48833777010441 60.464918665587902 41.69959370046854 240.56023968756199 11.91478808224201 288.09144107997417 27.595549434423447 63.173120304942131 4.6421917825937262 558.1018437743187 32.795748628675938 20.136025555431843 32.242151886224747 22.855971895158291 34.054805010557175 14.018931999802588 125.03644607961178 4.1935327798128119 636.17561855912209 5.1440575867891303
leaf_count=224 4316 4669 2489 2888 1190 7231 36 1243 1661 1685 744 615 289 2449 94 2298 180 810 27 5432 217 120 192 120 153 84 566 23 2805 25
internal_value=-0.000324526 -0.0126903 -0.0046542 0.0254415 -0.00179894 -0.0286063 0.00676217 0.000882298 -0.00757486 -0.0214856 0.0183476 -0.0144233 0.0164889 -0.00826764 -0.00307444 -0.00394198 -0.0103908 -0.0335161 0.0256839 -0.0104246 0.0134757 0.0221801 0.00728672 0.0461635 0.0152458 0.0165408 0.0152173 0.0314465 0.0160824 0.0187947
internal_weight=5381.82 3636.54 2416.46 1745.27 2198.92 1220.09 885.873 678.459 1313.05 776.252 1035.72 434.057 160.202 312.94 252.475 518.257 320.329 217.535 32.2377 1085.92 153.923 112.223 69.2314 42.992 852.234 814.43 780.375 36.4357 766.356 641.32
internal_count=44875 37386 20996 7489 17697 16390 5935 4745 11762 9159 4601 4843 997 3158 2543 3748 2505 3299 207 10101 961 672 432 240 3857 3633 3480 215 3396 2830
is_linear=0
shrinkage=0.05


Tree=24
num_leaves=31
num_cat=0
split_feature=28 13 28 2 1 13 13 24 26 16 9 28 14 25 17 28 19 13 0 13 24 19 8 13 15 0 26 10 28 13
split_gain=621.665 174.674 74.5019 47.4043 42.8671 39.735 23.4803 20.7436 18.429 17.198 17.0386 16.6775 14.8178 14.6806 14.4094 17.7447 14.1722 13.998 13.972 13.7222 15.3365 13.0586 12.5689 11.551 11.2704 11.7897 11.2396 11.1297 10.843 10.8002
threshold=1.5000000000000002 -0.15749999999999972 5.5000000000000009 3.5000000000000004 3.5000000000000004 1.066666666666668 -0.040000000000000473 -0.021666666666666053 0.029999999999999808 1.5000000000000002 5.6250000000000009 5.5000000000000009 0.094925000000000051 1.5000000000000002 3.5000000000000004 3.5000000000000004 -0.064999999999999988 1.1316666666666684 18.500000000000004 0.81500000000000072 0.12666666666666651 -0.019999999999999993 0.52400000000000013 -1.0483333333333333 -0.023333333333333334 2.5000000000000004 -0.13000000000000031 1.0000000180025095e-35 2.5000000000000004 1.1666666666666676
decision_type=2 2 2 2 2 2 2 2 2 2 2 2 2 2 2 2 2 2 2 2 2 2 2 2 2 2 2 2 2 2
left_child=3 4 5 6 8 7 -1 -3 10 14 27 23 13 24 15 -7 -16 -5 26 -4 -21 22 28 -6 -8 -26 -18 -2 -9 -28
right_child=1 2 19 17 11 9 12 21 -10 -11 -12 -13 -14 -15 16 -17 18 -19 -20 20 -22 -23 -24 -25 25 -27 29 -29 -30 -31
leaf_value=0.0092449568629537678 -0.040164092915425859 -0.015848651574941613 -0.042538625645733352 0.029933318174442211 -0.042297578162914316 0.029817682291456701 -0.0040586071482843654 0.025674333524183909 -0.028708334865987652 -0.0049657309093813972 0.016457901217066678 -0.047100026127379901 0.04367714747394006 0.016071723136207364 0.051450474156654602 0.0061034886266214785 0.069837130879082596 0.045890896356552691 -0.02378745562199816 -0.019699420987558908 0.12176122715317804 -0.0060333525709096725 -0.042874479515679888 -0.025285513022571256 -0.0024773957209361652 0.041767167482756884 -0.036626933029419294 -0.010159352406598769 0.0027330235532485913 0.008044433882836495
leaf_weight=449.77921314537525 36.129629425704479 423.26098603010178 133.41219676285982 400.82429119944572 144.25577712804079 174.86278542131186 18.37965852022171 71.703218847513199 194.22688240557909 197.29197762161493 54.072088427841663 224.83727046847343 83.54949514567852 420.45131897926331 13.955362282693384 143.72046245634556 6.7157929837703696 209.12937079370022 49.658349305391312 75.967575758695602 1.9655653536319722 760.75232492387295 12.142369784414766 323.63572414219379 16.775221407413483 146.9559018611908 14.957655571401117 213.7695215344429 182.84688404947519 141.80820503085852
leaf_count=2172 433 4286 2253 1629 2111 917 77 508 2509 1337 550 4097 339 1742 79 886 34 862 312 1025 21 6737 95 4262 68 600 111 2428 1518 877
internal_value=-0.000318643 -0.0122037 -0.00444907 0.0241612 -0.0278638 -0.00171755 0.0181237 -0.00653333 -0.0166779 0.00768562 -0.00899085 -0.0359084 0.0239441 0.021208 0.0122598 0.0191196 0.00263629 0.0354046 -0.000559822 -0.0328011 -0.0161316 -0.00269584 0.00682456 -0.0305305 0.0330666 0.0372341 0.00649569 -0.0144973 0.00919527 0.00378216
internal_weight=5341.79 3595.95 2405.02 1745.84 1190.93 2193.68 1135.89 1450.71 498.198 742.971 303.971 692.729 686.112 602.562 545.679 318.583 227.095 609.954 213.14 211.345 77.9331 1027.44 266.692 467.892 182.111 163.731 163.482 249.899 254.55 156.766
internal_count=44875 37386 20996 7489 16390 17697 4998 13144 5920 4553 3411 10470 2826 2487 3216 1803 1413 2491 1334 3299 1046 8858 2121 6373 745 668 1022 2861 2026 988
is_linear=0
shrinkage=0.05


Tree=25
num_leaves=31
num_cat=0
split_feature=28 13 28 7 1 24 15 28 20 20 27 8 0 20 14 12 14 13 24 11 24 25 11 7 27 15 9 27 27 15
split_gain=563.615 163.825 69.6587 43.9897 41.8574 37.8294 32.3131 19.4246 27.6807 19.162 19.2067 16.1562 15.4488 14.1979 13.5684 13.534 14.4311 13.4484 12.9271 12.2126 12.192 12.1693 12.1483 11.7191 11.6513 16.172 11.5103 21.5399 11.361 11.221
threshold=1.5000000000000002 -0.15749999999999972 5.5000000000000009 6.0950000000000006 4.5000000000000009 0.048333333333332458 0.018333333333333358 3.5000000000000004 0.38000000000000017 -1.9649999999999999 -0.11999999999999965 0.23755000000000001 6.5000000000000009 0.73000000000000032 0.02648333333333339 0.35145000000000004 0.030750000000000003 0.81500000000000072 0.12666666666666651 0.40050000000000008 -0.020000000000000014 1.5000000000000002 0.38175000000000003 5.0850000000000009 0.010000000000000233 -0.0016666666666666633 1.675 0.050000000000000273 -0.19499999999999981 0.011666666666666674
decision_type=2 2 2 2 2 2 2 2 2 2 2 2 2 2 2 2 2 2 2 2 2 2 2 2 2 2 2 2 2 2
left_child=3 4 5 11 9 6 7 8 -3 -2 -11 -1 -13 -7 -15 16 -16 -4 -19 -10 -12 -14 -9 -18 25 -21 27 -8 -6 -27
right_child=1 2 17 -5 28 13 26 22 19 10 20 12 21 14 15 -17 23 18 -20 24 -22 -23 -24 -25 -26 29 -28 -29 -30 -31
leaf_value=0.0053109305186939864 -0.036730308327276154 -0.013985505316377364 -0.041984765296114786 0.03260623087286986 0.086738507444814469 0.0014290485087023038 0.018376733841922951 -0.019311846284936127 0.0010685768982278893 0.018024312981132284 -0.028165020814466903 0.0072114714444305311 0.035078548183251346 0.010389458331981842 0.12089514688745469 0.055850687340810307 0.093335214069533046 -0.019032761606732656 0.10510694895914865 0.002277501182950995 -0.012989441208077532 0.019339559900825434 -0.0032632514413282786 0.0026435835483854999 -0.0021315780519310708 0.079971690512178645 0.0054910111749861519 0.15288523230481474 -0.040428805229336673 0.019019888418529057
leaf_weight=248.71851865947247 140.35088192671537 329.93515602499247 128.53767397999763 704.6025620251894 1.7638515755534161 166.15888274461031 14.412391006946565 450.25006328523159 340.47080075740814 38.331879951059818 208.63264172151685 183.72035436332226 170.70946931838989 130.94125763326883 3.1547902151942244 43.154095344245434 3.8923552706837645 74.729174762964249 2.1576537564396849 21.288192003965378 361.97549809515476 437.75363990664482 159.75896147638559 41.974380195140839 31.179715968668461 21.148138470947742 415.53702552616596 3.7509714215993872 412.10757247358561 11.744063563644884
leaf_count=1272 2131 3167 2253 2888 22 1242 106 4432 2460 358 2649 788 702 770 18 231 29 1025 21 141 4021 1839 1466 230 224 135 2947 29 7209 70
internal_value=-0.000312009 -0.0117304 -0.00425146 0.0229587 -0.0271245 -0.00163865 -0.00469598 -0.00847163 -0.00311452 -0.0200753 -0.0162366 0.0164281 0.0199185 0.0124942 0.0207346 0.0354306 0.0174547 -0.0320903 -0.0155491 0.00530836 -0.0185381 0.0237553 -0.0151088 0.0103399 0.0222193 0.0362328 0.007194 0.0461545 -0.0398868 0.058209
internal_weight=5302.84 3557.34 2394.18 1745.5 1163.16 2188.75 1799.48 1365.78 755.766 749.291 608.94 1040.9 792.183 389.276 223.117 92.1756 49.0215 205.425 76.8868 425.831 570.608 608.463 610.009 45.8667 85.3601 54.1804 433.7 18.1634 413.871 32.8922
internal_count=44875 37386 20996 7489 16390 17697 15177 12095 6197 9159 7028 4601 3329 2520 1278 508 277 3299 1046 3030 6670 2541 5898 259 570 346 3082 135 7231 205
is_linear=0
shrinkage=0.05


Tree=26
num_leaves=31
num_cat=0
split_feature=28 13 28 16 1 20 28 13 24 24 26 28 28 14 22 17 9 4 15 22 24 10 10 26 15 13 10 13 27 11
split_gain=510.99 153.492 65.4661 41.8528 41.0975 35.0191 23.5254 23.2059 18.7674 18.4848 17.1228 16.9935 16.7504 16.5388 17.0211 15.6376 15.4891 14.8822 14.8491 12.4531 13.0121 12.0954 11.7431 12.6111 11.8266 11.6014 11.5979 11.5299 11.5207 10.9359
threshold=1.5000000000000002 -0.15749999999999972 4.5000000000000009 2.5000000000000004 3.5000000000000004 0.38000000000000017 3.5000000000000004 1.066666666666668 0.073333333333334597 -0.033333333333332764 0.029999999999999808 5.5000000000000009 5.5000000000000009 0.059425000000000013 0.56500000000000006 5.5000000000000009 5.5250000000000012 46.500000000000007 -0.0059999999999999906 0.75000000000000033 0.051666666666667201 0.45050000000000007 0.21390000000000001 0.024999999999999915 0.026666666666666682 2.1825000000000001 0.61940000000000006 -1.0483333333333333 0.064999999999999961 0.38825000000000004
decision_type=2 2 2 2 2 2 2 2 2 2 2 2 2 2 2 2 2 2 2 2 2 2 2 2 2 2 2 2 2 2
left_child=3 4 5 -1 10 22 13 12 -8 -9 16 27 19 25 17 18 -2 -15 26 20 -4 -11 -3 24 -24 -7 -5 -6 -17 -25
right_child=1 2 7 15 11 6 8 9 -10 21 -12 -13 -14 14 -16 28 -18 -19 -20 -21 -22 -23 23 29 -26 -27 -28 -29 -30 -31
leaf_value=0.029863884670558973 -0.013816484227820719 -0.022606996303748655 -0.012784513220420655 0.0078034553070071809 -0.041234040393216882 0.0057152817861499151 -0.0074057046321983414 -0.036718163283497404 0.034530501869717622 -0.011250075746281046 -0.027261180948786878 -0.046364061306623766 -0.038540798394027923 0.10215901594779858 0.038377014042239914 0.004232391047143666 0.014111846192428341 -0.0021930684949158217 0.0228515101493744 -0.029269114666073549 0.035427609996410224 0.016005687749826244 -0.0021714650398797896 -0.021168267762916013 0.030893221141007388 0.035881790914186994 0.083612698279076109 -0.023736139366197929 -0.038355751188101833 0.0066970203956977538
leaf_weight=839.03359055519104 234.85919374972582 119.07202039659023 128.15931794792414 330.424162581563 135.27424944192171 558.88131817430258 342.1675833389163 35.762884169816971 28.934866145253181 77.998006962239742 185.61996600031853 208.1828694306314 146.37021915614605 3.6439050436019889 98.474808230996132 100.59606032073498 62.952129639685154 54.793450772762299 450.99095852673054 121.30779688060284 15.710740409791468 85.132998943328857 299.54336152225733 159.06729483604431 29.727934755384922 33.798761576414108 5.1234102845191947 309.63779266923666 18.856176361441612 45.219447761774063
leaf_count=3446 2767 1149 1555 1547 2111 3775 2564 343 157 705 2509 4097 2601 24 544 450 644 369 1933 1333 163 731 2579 1582 228 167 21 4262 92 427
internal_value=-0.000305987 -0.0112727 -0.00406357 0.0218174 -0.0263931 0.000797975 0.00615987 -0.0181863 -0.00413594 -0.00416312 -0.0153419 -0.0345734 -0.0249634 0.011257 0.0256912 0.0143657 -0.00791292 0.00431388 0.0169256 -0.0174692 -0.00751971 0.00297386 -0.00840945 -0.00524104 0.000813748 0.00743559 0.00896097 -0.0290563 -0.00249038 -0.0150002
internal_weight=5265.32 3520.29 2383.77 1745.02 1136.53 1773.32 1120.69 610.442 371.102 198.894 483.431 653.095 411.548 749.592 156.912 905.991 297.811 58.4374 786.539 265.178 143.87 163.131 652.63 533.558 329.271 592.68 335.548 444.912 119.452 204.287
internal_count=44875 37386 20996 7489 16390 13565 7600 7431 2721 1779 5920 10470 5652 4879 937 4043 3411 393 3501 3051 1718 1436 5965 4816 2807 3942 1568 6373 542 2009
is_linear=0
shrinkage=0.05


Tree=27
num_leaves=31
num_cat=0
split_feature=28 13 28 20 2 1 1 24 10 13 24 26 13 1 13 14 14 13 25 2 8 13 9 6 7 12 24 13 19 0
split_gain=463.259 143.848 76.2211 41.2526 39.9496 32.1494 24.4381 21.0567 20.1094 18.5489 18.4806 17.1552 14.3457 13.7195 19.1567 13.445 13.1149 13.0444 12.6317 12.2416 19.012 20.6799 11.7849 11.5469 13.5752 11.7192 12.6387 11.5053 12.8295 11.042
threshold=1.5000000000000002 -0.47250000000000009 5.5000000000000009 1.1499999999999999 3.5000000000000004 2.5000000000000004 4.5000000000000009 0.056666666666666206 0.35605000000000003 -0.040000000000000473 0.048333333333332458 -0.064999999999999933 0.81500000000000072 3.5000000000000004 1.6266666666666667 0.094925000000000051 -0.003149999999999958 1.1316666666666684 1.5000000000000002 2.5000000000000004 0.45305000000000001 -0.42833333333333251 6.2250000000000005 0.18500000000000003 5.455000000000001 0.28895000000000004 -0.0033333333333342981 2.1825000000000001 -0.0099999999999999863 3.5000000000000004
decision_type=2 2 2 2 2 2 2 2 2 2 2 2 2 2 2 2 2 2 2 2 2 2 2 2 2 2 2 2 2 2
left_child=4 6 3 10 9 23 7 -2 -9 -1 13 -7 -4 16 29 18 -3 -6 -11 -18 21 -21 -10 24 25 26 -5 -13 -29 -15
right_child=1 2 12 5 17 11 -8 8 22 15 -12 27 -14 14 -16 -17 19 -19 -20 20 -22 -23 -24 -25 -26 -27 -28 28 -30 -31
leaf_value=0.0074031655461389055 -0.026667400277288551 -0.012824216094596672 -0.040913822931692767 0.17751335111739258 0.025865028651805885 0.014480293235511027 -0.041537038537040397 -0.0066320982314380722 0.1248402835530667 0.02885568635018847 0.0044061530338651948 -0.0063730051785797536 -0.01446254973484622 0.0022117790222630314 0.040845744764006965 0.039258366204413669 -0.0098412977879668972 0.041386396194628527 0.013074837391591682 0.18405780215221307 -0.010005836807673465 0.016994985751312277 0.0031875372114694074 -0.029014628882665358 0.020780327309753127 0.034698036908370464 0.049971035298303518 0.031996640394931185 -0.034679379338347679 -0.019960803817679035
leaf_weight=454.92107832431793 424.36449443176389 346.39011918380857 162.06640511751175 3.7757470458745956 398.28850397467613 164.32725873589516 287.58776601031423 41.252190619707108 5.1885466054081899 181.36752681434155 261.57338216155767 476.31779636442661 74.970753416419029 63.344500564038754 14.461456716060637 83.249715954065323 168.48651448637247 205.05563376843929 421.51421235501766 1.8769533336162556 91.333086661994457 141.48183523118496 3.2301301285624504 10.333945989608763 183.18159277737141 13.362646900117396 4.0002557337284115 38.429693438112736 8.8820594996213895 494.43740242347121
leaf_count=2172 5807 3353 3116 27 1629 1013 5440 452 46 745 1986 3597 1046 701 95 339 1711 862 1742 21 752 1250 26 70 996 90 26 212 50 5503
internal_value=-0.000299852 -0.0108295 -0.00545686 -0.00287378 0.0207344 0.00565699 -0.0300382 -0.0230621 0.00773989 0.0152323 -0.00773676 0.000385966 -0.0325477 -0.0101397 -0.0159697 0.0204231 -0.0056889 0.0311402 0.0178223 0.000441392 0.00782339 0.0191823 0.0781638 0.0225504 0.0251584 0.0630977 0.111901 -0.00403717 0.0194792 -0.0174428
internal_weight=5229.05 3484.66 2723.03 2486 1744.4 902.611 761.623 474.035 49.6709 1141.05 1583.39 687.957 237.037 1321.81 572.243 686.131 749.569 603.344 602.882 403.178 234.692 143.359 8.41868 214.654 204.32 21.1386 7.776 523.63 47.3118 557.782
internal_count=44875 37386 25615 21453 7489 6081 11771 6331 524 4998 15372 4872 4162 13386 6299 2826 7087 2491 2487 3734 2023 1271 72 1209 1139 143 53 3859 262 6204
is_linear=0
shrinkage=0.05


Tree=28
num_leaves=31
num_cat=0
split_feature=28 13 28 1 2 18 26 24 20 17 0 24 27 4 9 12 13 13 26 1 12 20 15 19 24 24 24 22 9 27
split_gain=420.134 135.307 57.1211 39.1984 36.6966 33.0416 22.9265 19.5061 18.4199 18.4096 17.1528 17.3293 16.9297 14.2106 13.7634 14.5233 12.5997 12.1836 12.0797 11.8093 15.7925 12.836 14.0078 11.654 11.4279 11.2971 11.0317 10.6988 10.6052 10.4408
threshold=1.5000000000000002 -0.15749999999999972 5.5000000000000009 4.5000000000000009 3.5000000000000004 2.5000000000000004 -0.064999999999999933 0.020000000000000909 -1.9649999999999999 3.5000000000000004 4.5000000000000009 -0.0049999999999985603 -0.11999999999999965 45.500000000000007 4.6350000000000007 0.35964999999999997 0.81500000000000072 1.1316666666666684 -0.20500000000000004 3.5000000000000004 0.5978500000000001 0.42000000000000021 0.034999999999999989 -0.055 -0.086666666666665546 -0.020000000000000014 0.12666666666666651 -1.0000000180025095e-35 4.995000000000001 0.105
decision_type=2 2 2 2 2 2 2 2 2 2 2 2 2 2 2 2 2 2 2 2 2 2 2 2 2 2 2 2 2 2
left_child=4 3 5 8 10 6 28 -7 -2 19 14 -12 -10 27 -1 29 -4 -6 -5 20 21 22 24 -15 -8 -14 -18 -11 -3 -16
right_child=1 2 16 18 17 7 9 -9 12 13 11 -13 25 23 15 -17 26 -19 -20 -21 -22 -23 -24 -25 -26 -27 -28 -29 -30 -31
